{"epoch": 0, "_timestamp": 1580221199.0943835, "_runtime": 449.1063389778137, "_step": 2441, "graph_0": {"_type": "graph", "format": "torch", "nodes": [{"name": "fc1", "id": 140676421999584, "class_name": "Linear(in_features=9, out_features=9, bias=True)", "parameters": [["weight", [9, 9]], ["bias", [9]]], "output_shape": [[400, 9]], "num_parameters": [81, 9]}, {"name": "fc2", "id": 140676421999416, "class_name": "Linear(in_features=9, out_features=20, bias=True)", "parameters": [["weight", [20, 9]], ["bias", [20]]], "output_shape": [[400, 20]], "num_parameters": [180, 20]}, {"name": "fc3", "id": 140676421999304, "class_name": "Linear(in_features=20, out_features=50, bias=True)", "parameters": [["weight", [50, 20]], ["bias", [50]]], "output_shape": [[400, 50]], "num_parameters": [1000, 50]}, {"name": "fc4", "id": 140676421999472, "class_name": "Linear(in_features=50, out_features=10, bias=True)", "parameters": [["weight", [10, 50]], ["bias", [10]]], "output_shape": [[400, 10]], "num_parameters": [500, 10]}], "edges": []}, "loss": 1.3770298957824707, "gradients/fc4.weight": {"_type": "histogram", "values": [1.0, 0.0, 0.0, 1.0, 0.0, 0.0, 1.0, 0.0, 0.0, 0.0, 0.0, 0.0, 1.0, 0.0, 0.0, 0.0, 0.0, 1.0, 2.0, 1.0, 1.0, 0.0, 0.0, 0.0, 2.0, 1.0, 0.0, 0.0, 4.0, 5.0, 7.0, 6.0, 8.0, 11.0, 21.0, 30.0, 52.0, 222.0, 40.0, 25.0, 10.0, 12.0, 8.0, 4.0, 0.0, 3.0, 2.0, 3.0, 2.0, 1.0, 0.0, 5.0, 1.0, 0.0, 1.0, 1.0, 1.0, 0.0, 0.0, 2.0, 0.0, 0.0, 0.0, 1.0], "bins": [-0.07510344684123993, -0.07308139652013779, -0.07105934619903564, -0.0690372958779335, -0.06701524555683136, -0.06499319523572922, -0.06297114491462708, -0.06094909459352493, -0.05892704427242279, -0.05690499395132065, -0.054882943630218506, -0.052860893309116364, -0.05083884298801422, -0.04881679266691208, -0.046794742345809937, -0.044772692024707794, -0.04275064170360565, -0.04072859138250351, -0.03870654106140137, -0.036684490740299225, -0.03466244041919708, -0.03264039009809494, -0.030618339776992798, -0.028596289455890656, -0.026574239134788513, -0.02455218881368637, -0.02253013849258423, -0.020508088171482086, -0.018486037850379944, -0.0164639875292778, -0.01444193720817566, -0.012419886887073517, -0.010397836565971375, -0.008375786244869232, -0.00635373592376709, -0.0043316856026649475, -0.002309635281562805, -0.00028758496046066284, 0.0017344653606414795, 0.003756515681743622, 0.005778566002845764, 0.0078006163239479065, 0.009822666645050049, 0.011844716966152191, 0.013866767287254333, 0.015888817608356476, 0.017910867929458618, 0.01993291825056076, 0.021954968571662903, 0.023977018892765045, 0.025999069213867188, 0.02802111953496933, 0.030043169856071472, 0.032065220177173615, 0.03408727049827576, 0.0361093208193779, 0.03813137114048004, 0.040153421461582184, 0.042175471782684326, 0.04419752210378647, 0.04621957242488861, 0.04824162274599075, 0.050263673067092896, 0.05228571593761444, 0.05430777370929718]}, "gradients/fc1.weight": {"_type": "histogram", "values": [1.0, 0.0, 0.0, 0.0, 0.0, 0.0, 1.0, 0.0, 1.0, 1.0, 0.0, 0.0, 0.0, 0.0, 0.0, 0.0, 1.0, 2.0, 0.0, 0.0, 1.0, 0.0, 1.0, 0.0, 3.0, 0.0, 2.0, 2.0, 2.0, 1.0, 3.0, 0.0, 8.0, 6.0, 6.0, 3.0, 8.0, 4.0, 4.0, 1.0, 3.0, 0.0, 2.0, 3.0, 1.0, 1.0, 3.0, 0.0, 0.0, 0.0, 0.0, 0.0, 1.0, 1.0, 0.0, 0.0, 0.0, 0.0, 0.0, 0.0, 1.0, 1.0, 0.0, 2.0], "bins": [-0.35022497177124023, -0.340082585811615, -0.32994017004966736, -0.3197977840900421, -0.3096553683280945, -0.29951298236846924, -0.289370596408844, -0.27922818064689636, -0.2690857946872711, -0.2589433789253235, -0.24880099296569824, -0.2386585921049118, -0.22851619124412537, -0.21837379038333893, -0.20823140442371368, -0.19808900356292725, -0.1879466027021408, -0.17780420184135437, -0.16766180098056793, -0.1575194150209427, -0.14737701416015625, -0.1372346132993698, -0.12709221243858337, -0.11694981157779694, -0.1068074107170105, -0.09666502475738525, -0.08652260899543762, -0.07638022303581238, -0.06623783707618713, -0.0560954213142395, -0.04595303535461426, -0.035810619592666626, -0.025668233633041382, -0.015525847673416138, -0.005383431911468506, 0.004758954048156738, 0.01490136981010437, 0.025043755769729614, 0.03518614172935486, 0.04532855749130249, 0.055470943450927734, 0.06561335921287537, 0.07575574517250061, 0.08589813113212585, 0.09604054689407349, 0.10618293285369873, 0.11632534861564636, 0.1264677345752716, 0.13661015033721924, 0.14675253629684448, 0.15689492225646973, 0.16703730821609497, 0.177179753780365, 0.18732213973999023, 0.19746452569961548, 0.20760691165924072, 0.21774929761886597, 0.227891743183136, 0.23803412914276123, 0.24817651510238647, 0.2583189010620117, 0.26846128702163696, 0.278603732585907, 0.2887461185455322, 0.29888850450515747]}, "gradients/fc3.bias": {"_type": "histogram", "values": [1.0, 0.0, 0.0, 0.0, 0.0, 0.0, 0.0, 0.0, 0.0, 0.0, 0.0, 1.0, 1.0, 0.0, 0.0, 1.0, 0.0, 0.0, 2.0, 0.0, 0.0, 0.0, 1.0, 0.0, 0.0, 0.0, 0.0, 0.0, 1.0, 0.0, 16.0, 0.0, 4.0, 1.0, 0.0, 1.0, 1.0, 0.0, 1.0, 2.0, 5.0, 0.0, 0.0, 0.0, 1.0, 1.0, 2.0, 0.0, 0.0, 1.0, 1.0, 0.0, 1.0, 1.0, 0.0, 0.0, 0.0, 1.0, 0.0, 0.0, 0.0, 0.0, 1.0, 1.0], "bins": [-0.017909660935401917, -0.017319487407803535, -0.016729313880205154, -0.016139138489961624, -0.015548964962363243, -0.014958791434764862, -0.014368617907166481, -0.0137784443795681, -0.013188269920647144, -0.012598095461726189, -0.012007921934127808, -0.011417748406529427, -0.010827574878931046, -0.01023740042001009, -0.009647226892411709, -0.009057052433490753, -0.008466878905892372, -0.007876705378293991, -0.007286530919373035, -0.006696357391774654, -0.006106182932853699, -0.005516009405255318, -0.004925835877656937, -0.004335661418735981, -0.0037454878911376, -0.003155314363539219, -0.0025651399046182632, -0.001974966377019882, -0.0013847928494215012, -0.0007946193218231201, -0.00020444393157958984, 0.0003857295960187912, 0.0009759031236171722, 0.0015660766512155533, 0.0021562501788139343, 0.0027464255690574646, 0.0033365990966558456, 0.003926772624254227, 0.004516946151852608, 0.005107119679450989, 0.005697295069694519, 0.0062874685972929, 0.006877642124891281, 0.007467815652489662, 0.008057989180088043, 0.008648162707686424, 0.009238338097929955, 0.009828511625528336, 0.010418685153126717, 0.011008858680725098, 0.011599032208323479, 0.012189207598567009, 0.01277938112616539, 0.013369552791118622, 0.013959728181362152, 0.014549903571605682, 0.015140075236558914, 0.015730250626802444, 0.016320422291755676, 0.016910597681999207, 0.017500773072242737, 0.01809094473719597, 0.0186811201274395, 0.01927129179239273, 0.01986146718263626]}, "gradients/fc3.weight": {"_type": "histogram", "values": [2.0, 0.0, 0.0, 0.0, 0.0, 3.0, 0.0, 2.0, 0.0, 0.0, 3.0, 3.0, 3.0, 3.0, 3.0, 5.0, 7.0, 6.0, 19.0, 8.0, 8.0, 10.0, 10.0, 13.0, 10.0, 13.0, 31.0, 455.0, 27.0, 26.0, 36.0, 32.0, 33.0, 39.0, 33.0, 24.0, 19.0, 21.0, 15.0, 14.0, 10.0, 10.0, 4.0, 4.0, 4.0, 7.0, 6.0, 3.0, 4.0, 3.0, 1.0, 0.0, 2.0, 1.0, 0.0, 0.0, 1.0, 0.0, 2.0, 0.0, 0.0, 0.0, 0.0, 2.0], "bins": [-0.023026008158922195, -0.022178294137120247, -0.0213305801153183, -0.02048286609351635, -0.0196351520717144, -0.018787436187267303, -0.017939722165465355, -0.017092008143663406, -0.016244294121861458, -0.01539658010005951, -0.01454886607825756, -0.013701151125133038, -0.012853437103331089, -0.01200572308152914, -0.011158008128404617, -0.010310294106602669, -0.00946258008480072, -0.008614866062998772, -0.007767152041196823, -0.006919438019394875, -0.006071723997592926, -0.005224008113145828, -0.00437629409134388, -0.003528580069541931, -0.0026808660477399826, -0.001833152025938034, -0.0009854380041360855, -0.00013772398233413696, 0.0007099919021129608, 0.0015577059239149094, 0.002405419945716858, 0.0032531339675188065, 0.004100847989320755, 0.0049485620111227036, 0.005796276032924652, 0.006643990054726601, 0.007491704076528549, 0.008339419960975647, 0.009187132120132446, 0.010034848004579544, 0.010882560163736343, 0.011730276048183441, 0.012577991932630539, 0.013425704091787338, 0.014273419976234436, 0.015121132135391235, 0.015968848019838333, 0.016816560178995132, 0.01766427606344223, 0.018511991947889328, 0.019359704107046127, 0.020207419991493225, 0.021055132150650024, 0.021902848035097122, 0.02275056019425392, 0.02359827607870102, 0.024445991963148117, 0.025293704122304916, 0.026141420006752014, 0.026989132165908813, 0.02783684805035591, 0.02868456020951271, 0.02953227609395981, 0.030379988253116608, 0.031227704137563705]}, "gradients/fc4.bias": {"_type": "histogram", "values": [1.0, 0.0, 0.0, 0.0, 0.0, 0.0, 0.0, 0.0, 0.0, 0.0, 0.0, 0.0, 0.0, 0.0, 0.0, 0.0, 0.0, 0.0, 0.0, 0.0, 0.0, 0.0, 0.0, 0.0, 1.0, 0.0, 0.0, 0.0, 0.0, 0.0, 0.0, 1.0, 0.0, 0.0, 1.0, 0.0, 1.0, 0.0, 0.0, 0.0, 1.0, 0.0, 1.0, 0.0, 0.0, 0.0, 0.0, 0.0, 0.0, 0.0, 0.0, 0.0, 0.0, 0.0, 1.0, 0.0, 0.0, 1.0, 0.0, 0.0, 0.0, 0.0, 0.0, 1.0], "bins": [-0.024916531518101692, -0.024270396679639816, -0.02362426370382309, -0.022978128865361214, -0.022331994026899338, -0.02168586105108261, -0.021039726212620735, -0.02039359137415886, -0.019747458398342133, -0.019101323559880257, -0.01845518872141838, -0.017809055745601654, -0.017162920907139778, -0.016516786068677902, -0.015870653092861176, -0.015224517323076725, -0.014578383415937424, -0.013932249508798122, -0.013286114670336246, -0.012639980763196945, -0.01199384592473507, -0.011347712017595768, -0.010701578110456467, -0.01005544327199459, -0.00940930936485529, -0.008763175457715988, -0.008117040619254112, -0.007470905780792236, -0.00682477280497551, -0.006178637966513634, -0.005532503128051758, -0.004886370152235031, -0.004240235313773155, -0.0035941004753112793, -0.0029479674994945526, -0.0023018326610326767, -0.0016556978225708008, -0.001009564846754074, -0.0003634300082921982, 0.00028270483016967773, 0.0009288396686315536, 0.0015749726444482803, 0.0022211074829101562, 0.002867242321372032, 0.003513375297188759, 0.004159510135650635, 0.004805644974112511, 0.005451777949929237, 0.006097912788391113, 0.006744047626852989, 0.007390180602669716, 0.008036317303776741, 0.008682450279593468, 0.009328583255410194, 0.00997471995651722, 0.010620852932333946, 0.011266985908150673, 0.011913122609257698, 0.012559255585074425, 0.013205388560891151, 0.013851525261998177, 0.014497658237814903, 0.01514379121363163, 0.015789927914738655, 0.016436060890555382]}, "gradients/fc2.bias": {"_type": "histogram", "values": [1.0, 0.0, 0.0, 0.0, 0.0, 0.0, 0.0, 0.0, 0.0, 0.0, 1.0, 0.0, 0.0, 0.0, 0.0, 0.0, 0.0, 0.0, 1.0, 0.0, 1.0, 0.0, 0.0, 0.0, 1.0, 0.0, 1.0, 0.0, 0.0, 0.0, 0.0, 0.0, 0.0, 0.0, 0.0, 1.0, 0.0, 1.0, 3.0, 0.0, 0.0, 0.0, 0.0, 0.0, 1.0, 0.0, 1.0, 0.0, 2.0, 0.0, 0.0, 0.0, 1.0, 0.0, 0.0, 1.0, 1.0, 0.0, 1.0, 0.0, 0.0, 0.0, 0.0, 1.0], "bins": [-0.14391738176345825, -0.14021791517734528, -0.1365184485912323, -0.13281898200511932, -0.12911951541900635, -0.12542003393173218, -0.1217205673456192, -0.11802110075950623, -0.11432163417339325, -0.11062216758728027, -0.1069227010011673, -0.10322322696447372, -0.09952376037836075, -0.09582429379224777, -0.0921248197555542, -0.08842535316944122, -0.08472588658332825, -0.08102641999721527, -0.0773269534111023, -0.07362747937440872, -0.06992801278829575, -0.06622854620218277, -0.0625290721654892, -0.05882960557937622, -0.055130138993263245, -0.05143067240715027, -0.04773120582103729, -0.04403173178434372, -0.04033226519823074, -0.03663279861211777, -0.032933324575424194, -0.029233857989311218, -0.025534391403198242, -0.021834924817085266, -0.01813545823097229, -0.014435991644859314, -0.010736525058746338, -0.007037043571472168, -0.003337576985359192, 0.0003618896007537842, 0.00406135618686676, 0.007760822772979736, 0.011460289359092712, 0.015159755945205688, 0.01885923743247986, 0.022558704018592834, 0.02625817060470581, 0.029957637190818787, 0.03365710377693176, 0.03735657036304474, 0.041056036949157715, 0.04475550353527069, 0.04845497012138367, 0.05215445160865784, 0.05585391819477081, 0.05955338478088379, 0.06325285136699677, 0.06695231795310974, 0.07065178453922272, 0.0743512511253357, 0.07805073261260986, 0.08175019919872284, 0.08544966578483582, 0.08914913237094879, 0.09284859895706177]}, "gradients/fc2.weight": {"_type": "histogram", "values": [3.0, 0.0, 0.0, 0.0, 0.0, 0.0, 0.0, 0.0, 0.0, 1.0, 3.0, 0.0, 0.0, 0.0, 0.0, 0.0, 0.0, 1.0, 3.0, 0.0, 0.0, 2.0, 3.0, 4.0, 2.0, 3.0, 0.0, 2.0, 2.0, 0.0, 0.0, 2.0, 2.0, 1.0, 4.0, 2.0, 8.0, 11.0, 54.0, 15.0, 3.0, 0.0, 2.0, 6.0, 4.0, 5.0, 6.0, 0.0, 4.0, 0.0, 2.0, 5.0, 0.0, 2.0, 2.0, 3.0, 2.0, 1.0, 1.0, 1.0, 0.0, 0.0, 1.0, 2.0], "bins": [-0.19574809074401855, -0.1906530112028122, -0.18555793166160583, -0.18046286702156067, -0.1753677874803543, -0.17027270793914795, -0.16517764329910278, -0.16008256375789642, -0.15498748421669006, -0.1498924046754837, -0.14479732513427734, -0.13970226049423218, -0.13460718095302582, -0.12951210141181946, -0.1244170293211937, -0.11932195723056793, -0.11422687768936157, -0.10913179814815521, -0.10403672605752945, -0.09894165396690369, -0.09384657442569733, -0.08875149488449097, -0.0836564227938652, -0.07856135070323944, -0.07346627116203308, -0.06837119162082672, -0.06327611207962036, -0.058181047439575195, -0.053085967898368835, -0.047990888357162476, -0.04289582371711731, -0.03780074417591095, -0.03270566463470459, -0.02761058509349823, -0.02251550555229187, -0.017420440912246704, -0.012325361371040344, -0.007230281829833984, -0.0021352171897888184, 0.0029598623514175415, 0.008054941892623901, 0.013150021433830261, 0.01824510097503662, 0.023340165615081787, 0.028435245156288147, 0.03353032469749451, 0.03862538933753967, 0.04372046887874603, 0.04881554841995239, 0.05391062796115875, 0.05900570750236511, 0.06410077214241028, 0.06919586658477783, 0.074290931224823, 0.07938599586486816, 0.08448109030723572, 0.08957615494728088, 0.09467121958732605, 0.0997663140296936, 0.10486137866973877, 0.10995644330978394, 0.11505153775215149, 0.12014660239219666, 0.1252416968345642, 0.13033676147460938]}, "gradients/fc1.bias": {"_type": "histogram", "values": [1.0, 0.0, 0.0, 0.0, 0.0, 0.0, 0.0, 0.0, 0.0, 0.0, 0.0, 0.0, 1.0, 0.0, 0.0, 0.0, 0.0, 0.0, 0.0, 0.0, 0.0, 0.0, 1.0, 0.0, 0.0, 0.0, 0.0, 0.0, 1.0, 0.0, 0.0, 0.0, 0.0, 1.0, 0.0, 0.0, 0.0, 1.0, 0.0, 1.0, 0.0, 0.0, 0.0, 0.0, 0.0, 0.0, 0.0, 0.0, 1.0, 0.0, 0.0, 0.0, 0.0, 0.0, 0.0, 0.0, 0.0, 0.0, 0.0, 0.0, 0.0, 0.0, 0.0, 1.0], "bins": [-0.2868463099002838, -0.2777945399284363, -0.26874279975891113, -0.2596910297870636, -0.25063925981521606, -0.24158748984336853, -0.2325357347726822, -0.22348397970199585, -0.21443220973014832, -0.20538043975830078, -0.19632868468761444, -0.1872769296169281, -0.17822515964508057, -0.16917338967323303, -0.1601216346025467, -0.15106987953186035, -0.14201810956001282, -0.13296633958816528, -0.12391458451747894, -0.1148628294467926, -0.10581105947494507, -0.09675928950309753, -0.0877075344324112, -0.07865577936172485, -0.06960400938987732, -0.060552239418029785, -0.051500484347343445, -0.042448729276657104, -0.03339695930480957, -0.024345189332962036, -0.01529344916343689, -0.0062416791915893555, 0.0028100907802581787, 0.011861860752105713, 0.020913630723953247, 0.029965370893478394, 0.03901714086532593, 0.04806891083717346, 0.05712065100669861, 0.06617242097854614, 0.07522419095039368, 0.08427596092224121, 0.09332773089408875, 0.10237947106361389, 0.11143124103546143, 0.12048301100730896, 0.1295347511768341, 0.13858652114868164, 0.14763829112052917, 0.1566900610923767, 0.16574183106422424, 0.1747935712337494, 0.18384534120559692, 0.19289711117744446, 0.2019488513469696, 0.21100062131881714, 0.22005239129066467, 0.22910413146018982, 0.23815593123435974, 0.2472076714038849, 0.25625941157341003, 0.26531121134757996, 0.2743629515171051, 0.283414751291275, 0.29246649146080017]}}
