{"_step": 216311, "_timestamp": 1580248089.857818, "epoch": 55, "_runtime": 26648.103754520416, "graph_0": {"_type": "graph", "format": "torch", "nodes": [{"name": "fc1", "id": 139772984302784, "class_name": "Linear(in_features=9, out_features=9, bias=True)", "parameters": [["weight", [9, 9]], ["bias", [9]]], "output_shape": [[250, 9]], "num_parameters": [81, 9]}, {"name": "fc2", "id": 139772984302728, "class_name": "Linear(in_features=9, out_features=20, bias=True)", "parameters": [["weight", [20, 9]], ["bias", [20]]], "output_shape": [[250, 20]], "num_parameters": [180, 20]}, {"name": "fc3", "id": 139772984302392, "class_name": "Linear(in_features=20, out_features=50, bias=True)", "parameters": [["weight", [50, 20]], ["bias", [50]]], "output_shape": [[250, 50]], "num_parameters": [1000, 50]}, {"name": "fc4", "id": 139772984302336, "class_name": "Linear(in_features=50, out_features=10, bias=True)", "parameters": [["weight", [10, 50]], ["bias", [10]]], "output_shape": [[250, 10]], "num_parameters": [500, 10]}], "edges": []}, "loss": 0.40567198395729065, "gradients/fc2.bias": {"_type": "histogram", "values": [1.0, 0.0, 0.0, 0.0, 0.0, 0.0, 0.0, 0.0, 0.0, 0.0, 0.0, 1.0, 0.0, 0.0, 0.0, 0.0, 0.0, 0.0, 1.0, 0.0, 0.0, 1.0, 0.0, 1.0, 0.0, 0.0, 1.0, 1.0, 0.0, 2.0, 0.0, 0.0, 1.0, 0.0, 0.0, 0.0, 0.0, 0.0, 1.0, 1.0, 1.0, 0.0, 0.0, 1.0, 0.0, 1.0, 0.0, 0.0, 0.0, 0.0, 0.0, 1.0, 1.0, 0.0, 1.0, 0.0, 0.0, 0.0, 0.0, 0.0, 1.0, 0.0, 0.0, 1.0], "bins": [-0.2613140642642975, -0.2546667456626892, -0.24801942706108093, -0.24137210845947266, -0.23472478985786438, -0.2280774712562561, -0.22143015265464783, -0.21478284895420074, -0.20813553035259247, -0.2014882117509842, -0.19484089314937592, -0.18819357454776764, -0.18154625594615936, -0.1748989373445511, -0.168251633644104, -0.16160431504249573, -0.15495699644088745, -0.14830967783927917, -0.1416623592376709, -0.13501504063606262, -0.12836772203445435, -0.12172040343284607, -0.11507308483123779, -0.10842576622962952, -0.10177844762802124, -0.09513112902641296, -0.08848381042480469, -0.0818365067243576, -0.07518918812274933, -0.06854186952114105, -0.061894550919532776, -0.0552472323179245, -0.04859991371631622, -0.04195259511470795, -0.03530527651309967, -0.028657957911491394, -0.022010639309883118, -0.015363320708274841, -0.008716017007827759, -0.0020686984062194824, 0.004578620195388794, 0.01122593879699707, 0.017873257398605347, 0.024520576000213623, 0.0311678946018219, 0.037815213203430176, 0.04446253180503845, 0.05110985040664673, 0.057757169008255005, 0.06440448760986328, 0.07105180621147156, 0.07769912481307983, 0.08434644341468811, 0.09099376201629639, 0.09764105081558228, 0.10428836941719055, 0.11093568801879883, 0.1175830066204071, 0.12423032522201538, 0.13087764382362366, 0.13752496242523193, 0.1441722810268402, 0.1508195996284485, 0.15746691823005676, 0.16411423683166504]}, "gradients/fc1.bias": {"_type": "histogram", "values": [1.0, 0.0, 0.0, 0.0, 0.0, 0.0, 0.0, 1.0, 0.0, 0.0, 0.0, 0.0, 0.0, 0.0, 0.0, 0.0, 0.0, 1.0, 0.0, 0.0, 0.0, 0.0, 0.0, 0.0, 1.0, 0.0, 1.0, 0.0, 0.0, 0.0, 0.0, 0.0, 0.0, 0.0, 0.0, 0.0, 0.0, 0.0, 0.0, 1.0, 0.0, 0.0, 0.0, 0.0, 0.0, 0.0, 0.0, 0.0, 0.0, 0.0, 0.0, 0.0, 0.0, 0.0, 1.0, 0.0, 0.0, 0.0, 1.0, 0.0, 0.0, 0.0, 0.0, 1.0], "bins": [-0.35839706659317017, -0.3517647087574005, -0.34513235092163086, -0.3384999632835388, -0.33186760544776917, -0.3252352476119995, -0.31860288977622986, -0.3119705319404602, -0.30533814430236816, -0.2987057864665985, -0.29207342863082886, -0.2854410409927368, -0.27880871295928955, -0.2721763253211975, -0.26554396748542786, -0.2589116096496582, -0.25227922201156616, -0.2456468641757965, -0.23901450634002686, -0.2323821485042572, -0.22574977576732635, -0.2191174179315567, -0.21248504519462585, -0.2058526873588562, -0.19922032952308655, -0.1925879567861557, -0.18595559895038605, -0.1793232262134552, -0.17269086837768555, -0.1660584956407547, -0.15942613780498505, -0.1527937650680542, -0.14616140723228455, -0.1395290493965149, -0.13289667665958405, -0.1262643188238144, -0.11963194608688354, -0.11299958825111389, -0.10636723041534424, -0.0997348427772522, -0.09310248494148254, -0.08647012710571289, -0.07983776926994324, -0.07320541143417358, -0.06657302379608154, -0.05994066596031189, -0.053308308124542236, -0.04667595028877258, -0.04004359245300293, -0.03341120481491089, -0.026778846979141235, -0.020146489143371582, -0.013514131307601929, -0.006881743669509888, -0.0002493858337402344, 0.006382972002029419, 0.013015329837799072, 0.019647687673568726, 0.026280075311660767, 0.03291243314743042, 0.03954479098320007, 0.04617714881896973, 0.05280953645706177, 0.05944189429283142, 0.06607425212860107]}, "gradients/fc3.bias": {"_type": "histogram", "values": [2.0, 0.0, 0.0, 0.0, 1.0, 0.0, 0.0, 0.0, 0.0, 0.0, 0.0, 0.0, 0.0, 0.0, 1.0, 0.0, 0.0, 0.0, 0.0, 2.0, 1.0, 0.0, 1.0, 3.0, 0.0, 1.0, 0.0, 2.0, 0.0, 1.0, 1.0, 0.0, 0.0, 2.0, 2.0, 0.0, 1.0, 13.0, 2.0, 0.0, 0.0, 0.0, 0.0, 1.0, 1.0, 1.0, 0.0, 1.0, 0.0, 2.0, 0.0, 1.0, 0.0, 1.0, 2.0, 1.0, 0.0, 0.0, 0.0, 0.0, 0.0, 0.0, 0.0, 3.0], "bins": [-0.04615310579538345, -0.044927481561899185, -0.04370185732841492, -0.04247622936964035, -0.04125060513615608, -0.040024980902671814, -0.03879935294389725, -0.03757372871041298, -0.03634810447692871, -0.03512248024344444, -0.033896856009960175, -0.03267122805118561, -0.03144560381770134, -0.03021997958421707, -0.028994353488087654, -0.027768727391958237, -0.02654310315847397, -0.0253174789249897, -0.024091852828860283, -0.022866226732730865, -0.021640602499246597, -0.02041497826576233, -0.01918935216963291, -0.017963726073503494, -0.016738101840019226, -0.015512477606534958, -0.01428685337305069, -0.013061225414276123, -0.011835601180791855, -0.010609976947307587, -0.00938434898853302, -0.008158724755048752, -0.006933100521564484, -0.0057074762880802155, -0.004481852054595947, -0.0032562240958213806, -0.0020305998623371124, -0.0008049756288528442, 0.0004206523299217224, 0.0016462765634059906, 0.002871900796890259, 0.004097525030374527, 0.005323149263858795, 0.006548777222633362, 0.00777440145611763, 0.009000025689601898, 0.010225653648376465, 0.011451277881860733, 0.012676902115345001, 0.01390252634882927, 0.015128150582313538, 0.016353778541088104, 0.017579399049282074, 0.01880502700805664, 0.020030654966831207, 0.021256275475025177, 0.022481903433799744, 0.02370753139257431, 0.02493315190076828, 0.026158779859542847, 0.027384407818317413, 0.028610028326511383, 0.02983565628528595, 0.03106127679347992, 0.032286904752254486]}, "gradients/fc2.weight": {"_type": "histogram", "values": [1.0, 0.0, 0.0, 0.0, 0.0, 0.0, 0.0, 0.0, 0.0, 1.0, 0.0, 0.0, 0.0, 0.0, 1.0, 0.0, 0.0, 0.0, 1.0, 1.0, 1.0, 0.0, 3.0, 1.0, 1.0, 1.0, 3.0, 0.0, 2.0, 3.0, 0.0, 7.0, 4.0, 5.0, 7.0, 7.0, 6.0, 6.0, 5.0, 5.0, 7.0, 8.0, 32.0, 4.0, 11.0, 4.0, 5.0, 2.0, 5.0, 4.0, 5.0, 3.0, 5.0, 1.0, 4.0, 0.0, 0.0, 2.0, 1.0, 1.0, 0.0, 2.0, 1.0, 1.0], "bins": [-0.5920311212539673, -0.5780167579650879, -0.5640024542808533, -0.5499880909919739, -0.5359737873077393, -0.5219594240188599, -0.5079450607299805, -0.49393072724342346, -0.47991639375686646, -0.46590206027030945, -0.45188772678375244, -0.43787336349487305, -0.42385903000831604, -0.40984469652175903, -0.39583033323287964, -0.38181599974632263, -0.3678016662597656, -0.3537873327732086, -0.3397729992866516, -0.3257586359977722, -0.3117443025112152, -0.2977299690246582, -0.2837156057357788, -0.2697012722492218, -0.2556869387626648, -0.2416726052761078, -0.22765827178955078, -0.2136439085006714, -0.19962957501411438, -0.18561524152755737, -0.17160087823867798, -0.15758654475212097, -0.14357221126556396, -0.12955787777900696, -0.11554354429244995, -0.10152918100357056, -0.08751487731933594, -0.07350051403045654, -0.05948615074157715, -0.04547184705734253, -0.031457483768463135, -0.01744312047958374, -0.003428816795349121, 0.010585546493530273, 0.024599909782409668, 0.03861421346664429, 0.05262857675552368, 0.0666428804397583, 0.0806572437286377, 0.09467160701751709, 0.10868591070175171, 0.1227002739906311, 0.13671457767486572, 0.15072894096374512, 0.1647433042526245, 0.17875760793685913, 0.19277197122573853, 0.20678633451461792, 0.22080063819885254, 0.23481500148773193, 0.24882936477661133, 0.26284366846084595, 0.27685803174972534, 0.29087233543395996, 0.30488669872283936]}, "gradients/fc4.weight": {"_type": "histogram", "values": [1.0, 0.0, 0.0, 0.0, 0.0, 0.0, 0.0, 0.0, 1.0, 1.0, 0.0, 0.0, 0.0, 0.0, 1.0, 0.0, 1.0, 1.0, 1.0, 2.0, 4.0, 2.0, 2.0, 4.0, 6.0, 5.0, 9.0, 12.0, 6.0, 16.0, 17.0, 27.0, 30.0, 47.0, 171.0, 28.0, 22.0, 15.0, 12.0, 7.0, 7.0, 7.0, 5.0, 5.0, 2.0, 1.0, 3.0, 2.0, 2.0, 3.0, 3.0, 1.0, 3.0, 1.0, 1.0, 0.0, 0.0, 1.0, 1.0, 0.0, 0.0, 0.0, 0.0, 1.0], "bins": [-0.11470884084701538, -0.11133604496717453, -0.10796324163675308, -0.10459044575691223, -0.10121764987707138, -0.09784485399723053, -0.09447205066680908, -0.09109925478696823, -0.08772645890712738, -0.08435365557670593, -0.08098085969686508, -0.07760806381702423, -0.07423526048660278, -0.07086246460676193, -0.06748966872692108, -0.06411686539649963, -0.06074406951665878, -0.057371269911527634, -0.05399847403168678, -0.050625674426555634, -0.04725287854671478, -0.043880075216293335, -0.040507279336452484, -0.03713448345661163, -0.033761680126190186, -0.030388884246349335, -0.027016088366508484, -0.023643292486667633, -0.020270489156246185, -0.016897693276405334, -0.013524897396564484, -0.010152094066143036, -0.006779298186302185, -0.0034065023064613342, -3.3698976039886475e-05, 0.0033390969038009644, 0.006711892783641815, 0.010084696114063263, 0.013457491993904114, 0.01683029532432556, 0.020203083753585815, 0.023575887084007263, 0.02694869041442871, 0.030321478843688965, 0.03369428217411041, 0.03706708550453186, 0.040439873933792114, 0.04381267726421356, 0.04718548059463501, 0.050558269023895264, 0.05393107235431671, 0.057303860783576965, 0.06067666411399841, 0.06404946744441986, 0.06742225587368011, 0.07079505920410156, 0.07416786253452301, 0.07754065096378326, 0.08091345429420471, 0.08428625762462616, 0.08765904605388641, 0.09103184938430786, 0.09440465271472931, 0.09777744114398956, 0.10115024447441101]}, "gradients/fc4.bias": {"_type": "histogram", "values": [1.0, 0.0, 0.0, 0.0, 0.0, 0.0, 0.0, 0.0, 0.0, 1.0, 0.0, 0.0, 0.0, 0.0, 0.0, 0.0, 1.0, 1.0, 0.0, 0.0, 0.0, 0.0, 0.0, 0.0, 0.0, 1.0, 0.0, 1.0, 1.0, 0.0, 0.0, 0.0, 0.0, 0.0, 0.0, 0.0, 0.0, 0.0, 1.0, 0.0, 0.0, 0.0, 0.0, 0.0, 0.0, 0.0, 0.0, 1.0, 0.0, 0.0, 0.0, 0.0, 0.0, 0.0, 0.0, 0.0, 0.0, 0.0, 0.0, 0.0, 0.0, 0.0, 0.0, 1.0], "bins": [-0.008431323803961277, -0.008125797845423222, -0.007820270955562592, -0.007514744997024536, -0.007209219038486481, -0.006903693079948425, -0.0065981666557490826, -0.00629264023154974, -0.005987114273011684, -0.005681588314473629, -0.005376061890274286, -0.0050705354660749435, -0.004765009507536888, -0.004459483548998833, -0.00415395712479949, -0.0038484307006001472, -0.003542904742062092, -0.0032373787835240364, -0.0029318523593246937, -0.002626325935125351, -0.0023207999765872955, -0.00201527401804924, -0.0017097475938498974, -0.0014042211696505547, -0.0010986952111124992, -0.0007931692525744438, -0.0004876432940363884, -0.00018211640417575836, 0.00012340955436229706, 0.0004289355129003525, 0.0007344624027609825, 0.001039988361299038, 0.0013455143198370934, 0.0016510402783751488, 0.001956566236913204, 0.0022620931267738342, 0.0025676190853118896, 0.002873145043849945, 0.003178671933710575, 0.0034841978922486305, 0.003789723850786686, 0.004095249809324741, 0.004400775767862797, 0.004706302657723427, 0.005011828616261482, 0.005317354574799538, 0.005622881464660168, 0.005928407423198223, 0.0062339333817362785, 0.006539459340274334, 0.006844985298812389, 0.007150512188673019, 0.0074560372158885, 0.007761565037071705, 0.00806709099560976, 0.008372616954147816, 0.008678142912685871, 0.008983668871223927, 0.009289194829761982, 0.009594720788300037, 0.009900248609483242, 0.010205774568021297, 0.010511300526559353, 0.010816826485097408, 0.011122352443635464]}, "gradients/fc1.weight": {"_type": "histogram", "values": [1.0, 0.0, 0.0, 0.0, 0.0, 0.0, 0.0, 0.0, 0.0, 1.0, 0.0, 0.0, 0.0, 1.0, 3.0, 1.0, 1.0, 1.0, 0.0, 2.0, 2.0, 2.0, 2.0, 3.0, 3.0, 2.0, 2.0, 3.0, 2.0, 4.0, 2.0, 2.0, 2.0, 1.0, 2.0, 3.0, 1.0, 12.0, 6.0, 2.0, 1.0, 1.0, 0.0, 3.0, 1.0, 0.0, 2.0, 0.0, 0.0, 0.0, 0.0, 1.0, 0.0, 1.0, 0.0, 0.0, 0.0, 1.0, 0.0, 0.0, 0.0, 0.0, 0.0, 1.0], "bins": [-0.508194088935852, -0.4946274757385254, -0.4810608923435211, -0.46749427914619446, -0.4539276659488678, -0.4403610825538635, -0.42679446935653687, -0.4132278561592102, -0.39966124296188354, -0.3860946595668793, -0.3725280463695526, -0.35896146297454834, -0.3453948497772217, -0.331828236579895, -0.31826162338256836, -0.3046950101852417, -0.2911284267902374, -0.27756184339523315, -0.2639952301979065, -0.25042861700057983, -0.23686200380325317, -0.2232954204082489, -0.20972880721092224, -0.19616219401359558, -0.1825956106185913, -0.16902899742126465, -0.155462384223938, -0.14189577102661133, -0.12832918763160706, -0.1147625744342804, -0.10119596123695374, -0.08762937784194946, -0.0740627646446228, -0.06049615144729614, -0.04692956805229187, -0.03336295485496521, -0.01979634165763855, -0.006229758262634277, 0.007336854934692383, 0.020903468132019043, 0.0344700813293457, 0.04803669452667236, 0.06160324811935425, 0.07516986131668091, 0.08873647451400757, 0.10230308771133423, 0.11586970090866089, 0.12943631410598755, 0.14300286769866943, 0.1565694808959961, 0.17013609409332275, 0.18370270729064941, 0.19726932048797607, 0.21083593368530273, 0.2244025468826294, 0.23796910047531128, 0.25153571367263794, 0.2651023268699646, 0.27866894006729126, 0.2922355532646179, 0.3058021664619446, 0.31936872005462646, 0.3329353332519531, 0.3465019464492798, 0.36006855964660645]}, "gradients/fc3.weight": {"_type": "histogram", "values": [1.0, 0.0, 0.0, 1.0, 1.0, 3.0, 0.0, 2.0, 3.0, 3.0, 1.0, 3.0, 2.0, 3.0, 2.0, 1.0, 4.0, 4.0, 4.0, 9.0, 8.0, 12.0, 4.0, 8.0, 5.0, 11.0, 13.0, 15.0, 29.0, 29.0, 27.0, 40.0, 53.0, 58.0, 328.0, 59.0, 45.0, 43.0, 35.0, 29.0, 10.0, 14.0, 17.0, 13.0, 8.0, 5.0, 8.0, 6.0, 4.0, 0.0, 4.0, 1.0, 4.0, 1.0, 1.0, 1.0, 2.0, 0.0, 1.0, 0.0, 0.0, 1.0, 0.0, 1.0], "bins": [-0.13693922758102417, -0.13296224176883698, -0.12898525595664978, -0.12500827014446259, -0.12103128433227539, -0.1170542985200882, -0.1130773052573204, -0.10910031944513321, -0.10512333363294601, -0.10114634782075882, -0.09716936200857162, -0.09319236874580383, -0.08921538293361664, -0.08523839712142944, -0.08126141130924225, -0.07728442549705505, -0.07330743968486786, -0.06933045387268066, -0.06535346806049347, -0.061376482248306274, -0.05739949643611908, -0.05342250317335129, -0.04944551736116409, -0.0454685315489769, -0.0414915457367897, -0.03751455992460251, -0.033537574112415314, -0.02956058830022812, -0.025583595037460327, -0.021606609225273132, -0.017629623413085938, -0.013652637600898743, -0.009675651788711548, -0.005698665976524353, -0.0017216801643371582, 0.0022553056478500366, 0.0062322914600372314, 0.010209277272224426, 0.014186263084411621, 0.018163248896598816, 0.02214023470878601, 0.0261172354221344, 0.030094221234321594, 0.03407120704650879, 0.038048192858695984, 0.04202517867088318, 0.046002164483070374, 0.04997915029525757, 0.05395613610744476, 0.05793312191963196, 0.06191010773181915, 0.06588709354400635, 0.06986407935619354, 0.07384106516838074, 0.07781805098056793, 0.08179503679275513, 0.08577203750610352, 0.08974902331829071, 0.0937260091304779, 0.0977029949426651, 0.1016799807548523, 0.10565696656703949, 0.10963395237922668, 0.11361092329025269, 0.11758792400360107]}, "test_accuracy": 0.0}
