{"_timestamp": 1580220648.868709, "epoch": 0, "_step": 4882, "_runtime": 723.4394743442535, "graph_0": {"_type": "graph", "format": "torch", "nodes": [{"name": "fc1", "id": 139825873116128, "class_name": "Linear(in_features=9, out_features=9, bias=True)", "parameters": [["weight", [9, 9]], ["bias", [9]]], "output_shape": [[200, 9]], "num_parameters": [81, 9]}, {"name": "fc2", "id": 139825873115960, "class_name": "Linear(in_features=9, out_features=20, bias=True)", "parameters": [["weight", [20, 9]], ["bias", [20]]], "output_shape": [[200, 20]], "num_parameters": [180, 20]}, {"name": "fc3", "id": 139825873115848, "class_name": "Linear(in_features=20, out_features=50, bias=True)", "parameters": [["weight", [50, 20]], ["bias", [50]]], "output_shape": [[200, 50]], "num_parameters": [1000, 50]}, {"name": "fc4", "id": 139825873116016, "class_name": "Linear(in_features=50, out_features=10, bias=True)", "parameters": [["weight", [10, 50]], ["bias", [10]]], "output_shape": [[200, 10]], "num_parameters": [500, 10]}], "edges": []}, "loss": 0.9544391632080078, "gradients/fc1.weight": {"_type": "histogram", "values": [1.0, 0.0, 0.0, 0.0, 0.0, 0.0, 0.0, 0.0, 0.0, 0.0, 1.0, 0.0, 0.0, 0.0, 0.0, 0.0, 0.0, 1.0, 0.0, 1.0, 0.0, 0.0, 1.0, 0.0, 1.0, 1.0, 0.0, 0.0, 0.0, 0.0, 0.0, 0.0, 1.0, 0.0, 1.0, 1.0, 4.0, 1.0, 5.0, 3.0, 1.0, 4.0, 0.0, 2.0, 6.0, 3.0, 3.0, 3.0, 7.0, 3.0, 2.0, 4.0, 0.0, 3.0, 6.0, 3.0, 1.0, 2.0, 1.0, 2.0, 1.0, 0.0, 0.0, 1.0], "bins": [-1.540471076965332, -1.5084481239318848, -1.476425290107727, -1.4444023370742798, -1.412379503250122, -1.3803565502166748, -1.348333716392517, -1.3163107633590698, -1.284287929534912, -1.2522649765014648, -1.2202420234680176, -1.1882191896438599, -1.1561962366104126, -1.1241734027862549, -1.0921504497528076, -1.0601274967193604, -1.0281046628952026, -0.9960817694664001, -0.9640588760375977, -0.9320359826087952, -0.9000130891799927, -0.8679901361465454, -0.8359672427177429, -0.8039443492889404, -0.7719214558601379, -0.7398985624313354, -0.707875669002533, -0.6758527755737305, -0.6438298225402832, -0.6118069291114807, -0.5797840356826782, -0.5477611422538757, -0.5157382488250732, -0.483715295791626, -0.45169246196746826, -0.419669508934021, -0.3876466751098633, -0.355623722076416, -0.3236008882522583, -0.29157793521881104, -0.2595551013946533, -0.22753214836120605, -0.1955091953277588, -0.16348636150360107, -0.1314634084701538, -0.0994405746459961, -0.06741762161254883, -0.03539478778839111, -0.0033718347549438477, 0.028651118278503418, 0.06067395210266113, 0.0926969051361084, 0.12471973896026611, 0.15674269199371338, 0.1887655258178711, 0.22078847885131836, 0.2528114318847656, 0.28483426570892334, 0.3168572187423706, 0.3488800525665283, 0.3809030055999756, 0.4129258394241333, 0.44494879245758057, 0.4769716262817383, 0.5089945793151855]}, "gradients/fc3.weight": {"_type": "histogram", "values": [1.0, 0.0, 0.0, 1.0, 0.0, 0.0, 0.0, 0.0, 0.0, 0.0, 1.0, 2.0, 3.0, 1.0, 2.0, 2.0, 3.0, 4.0, 4.0, 3.0, 7.0, 8.0, 9.0, 6.0, 11.0, 13.0, 7.0, 21.0, 23.0, 24.0, 30.0, 33.0, 44.0, 58.0, 85.0, 435.0, 43.0, 33.0, 22.0, 17.0, 8.0, 4.0, 7.0, 4.0, 4.0, 3.0, 4.0, 1.0, 2.0, 2.0, 1.0, 1.0, 1.0, 1.0, 0.0, 0.0, 0.0, 0.0, 0.0, 0.0, 0.0, 0.0, 0.0, 1.0], "bins": [-0.12898804247379303, -0.12533041834831238, -0.12167278677225113, -0.11801515519618988, -0.11435752362012863, -0.11069989204406738, -0.10704226791858673, -0.10338463634252548, -0.09972700476646423, -0.09606938064098358, -0.09241174906492233, -0.08875411748886108, -0.08509649336338043, -0.08143886178731918, -0.07778123021125793, -0.07412360608577728, -0.07046597450971603, -0.06680834293365479, -0.06315071880817413, -0.059493087232112885, -0.055835455656051636, -0.052177831530570984, -0.048520199954509735, -0.044862568378448486, -0.041204944252967834, -0.037547312676906586, -0.03388968110084534, -0.030232049524784088, -0.026574425399303436, -0.022916793823242188, -0.01925916224718094, -0.015601538121700287, -0.011943906545639038, -0.00828627496957779, -0.0046286508440971375, -0.0009710192680358887, 0.002686604857444763, 0.006344243884086609, 0.01000186800956726, 0.013659492135047913, 0.01731713116168976, 0.02097475528717041, 0.024632379412651062, 0.028290018439292908, 0.03194764256477356, 0.03560526669025421, 0.03926290571689606, 0.04292052984237671, 0.04657815396785736, 0.05023579299449921, 0.05389341711997986, 0.057551056146621704, 0.061208680272102356, 0.06486630439758301, 0.06852394342422485, 0.0721815675497055, 0.07583919167518616, 0.079496830701828, 0.08315445482730865, 0.0868120789527893, 0.09046971797943115, 0.0941273421049118, 0.09778496623039246, 0.1014426052570343, 0.10510022938251495]}, "gradients/fc4.bias": {"_type": "histogram", "values": [1.0, 0.0, 0.0, 0.0, 0.0, 0.0, 0.0, 0.0, 0.0, 0.0, 0.0, 0.0, 0.0, 0.0, 0.0, 0.0, 0.0, 0.0, 0.0, 0.0, 1.0, 0.0, 0.0, 0.0, 0.0, 0.0, 0.0, 0.0, 0.0, 0.0, 0.0, 0.0, 0.0, 1.0, 0.0, 0.0, 0.0, 3.0, 0.0, 0.0, 0.0, 0.0, 0.0, 0.0, 0.0, 0.0, 1.0, 0.0, 0.0, 0.0, 1.0, 0.0, 0.0, 0.0, 1.0, 0.0, 0.0, 0.0, 0.0, 0.0, 0.0, 0.0, 0.0, 1.0], "bins": [-0.042542632669210434, -0.04142899066209793, -0.04031534865498543, -0.039201706647872925, -0.03808806091547012, -0.03697441890835762, -0.03586077690124512, -0.034747134894132614, -0.03363349288702011, -0.03251985087990761, -0.031406208872795105, -0.030292565003037453, -0.02917892299592495, -0.028065280988812447, -0.026951637119054794, -0.02583799511194229, -0.024724353104829788, -0.023610711097717285, -0.022497069090604782, -0.02138342522084713, -0.020269783213734627, -0.019156141206622124, -0.01804249733686447, -0.01692885532975197, -0.015815213322639465, -0.014701571315526962, -0.01358792930841446, -0.012474285438656807, -0.011360643431544304, -0.010246999561786652, -0.009133357554674149, -0.008019715547561646, -0.0069060735404491425, -0.005792431533336639, -0.004678789526224136, -0.0035651475191116333, -0.0024515055119991302, -0.0013378597795963287, -0.00022421777248382568, 0.0008894242346286774, 0.0020030662417411804, 0.0031167082488536835, 0.0042303502559661865, 0.00534399226307869, 0.006457637995481491, 0.007571280002593994, 0.008684922009706497, 0.009798564016819, 0.010912206023931503, 0.012025848031044006, 0.01313949003815651, 0.014253132045269012, 0.015366774052381516, 0.016480419784784317, 0.01759406179189682, 0.018707703799009323, 0.019821345806121826, 0.02093498781323433, 0.02204863354563713, 0.023162271827459335, 0.024275917559862137, 0.02538955584168434, 0.026503201574087143, 0.027616839855909348, 0.02873048558831215]}, "gradients/fc2.weight": {"_type": "histogram", "values": [1.0, 0.0, 0.0, 0.0, 0.0, 0.0, 0.0, 0.0, 0.0, 0.0, 0.0, 1.0, 0.0, 0.0, 0.0, 1.0, 0.0, 0.0, 1.0, 1.0, 1.0, 1.0, 0.0, 2.0, 1.0, 3.0, 2.0, 5.0, 2.0, 4.0, 9.0, 7.0, 9.0, 5.0, 10.0, 13.0, 35.0, 16.0, 9.0, 8.0, 8.0, 4.0, 7.0, 3.0, 5.0, 1.0, 0.0, 1.0, 1.0, 0.0, 0.0, 0.0, 0.0, 2.0, 0.0, 0.0, 0.0, 0.0, 0.0, 0.0, 0.0, 0.0, 0.0, 1.0], "bins": [-1.1171891689300537, -1.0866494178771973, -1.0561095476150513, -1.0255697965621948, -0.9950299859046936, -0.9644901752471924, -0.9339504241943359, -0.9034106135368347, -0.8728708028793335, -0.8423309922218323, -0.811791181564331, -0.7812514305114746, -0.7507116198539734, -0.7201718091964722, -0.6896320581436157, -0.6590922474861145, -0.6285524368286133, -0.5980126261711121, -0.5674728155136108, -0.5369330644607544, -0.5063932538032532, -0.47585344314575195, -0.4453136920928955, -0.4147738814353943, -0.38423407077789307, -0.35369426012039185, -0.3231544494628906, -0.2926146984100342, -0.26207488775253296, -0.23153507709503174, -0.2009953260421753, -0.17045551538467407, -0.13991570472717285, -0.1093759536743164, -0.07883608341217041, -0.048296332359313965, -0.01775646209716797, 0.012783288955688477, 0.04332304000854492, 0.07386291027069092, 0.10440266132354736, 0.1349424123764038, 0.1654822826385498, 0.19602203369140625, 0.2265617847442627, 0.2571016550064087, 0.28764140605926514, 0.31818127632141113, 0.3487210273742676, 0.379260778427124, 0.40980064868927, 0.44034039974212646, 0.47088027000427246, 0.5014200210571289, 0.5319597721099854, 0.5624996423721313, 0.5930393934249878, 0.6235791444778442, 0.6541190147399902, 0.6846587657928467, 0.7151985168457031, 0.7457383871078491, 0.7762781381607056, 0.8068180084228516, 0.837357759475708]}, "gradients/fc2.bias": {"_type": "histogram", "values": [1.0, 0.0, 0.0, 0.0, 0.0, 0.0, 0.0, 0.0, 0.0, 0.0, 0.0, 0.0, 0.0, 0.0, 0.0, 1.0, 0.0, 0.0, 0.0, 1.0, 0.0, 1.0, 1.0, 0.0, 0.0, 0.0, 0.0, 0.0, 0.0, 0.0, 0.0, 0.0, 0.0, 2.0, 1.0, 0.0, 0.0, 0.0, 1.0, 1.0, 1.0, 0.0, 0.0, 1.0, 2.0, 1.0, 0.0, 0.0, 0.0, 0.0, 0.0, 1.0, 1.0, 0.0, 0.0, 1.0, 0.0, 0.0, 0.0, 0.0, 1.0, 0.0, 0.0, 1.0], "bins": [-0.48002859950065613, -0.4686523675918579, -0.4572761356830597, -0.4458999037742615, -0.43452364206314087, -0.42314741015434265, -0.41177117824554443, -0.4003949463367462, -0.389018714427948, -0.3776424527168274, -0.36626625061035156, -0.35488998889923096, -0.34351375699043274, -0.3321375250816345, -0.3207612931728363, -0.3093850612640381, -0.2980087995529175, -0.28663259744644165, -0.27525633573532104, -0.2638801038265228, -0.2525038719177246, -0.2411276251077652, -0.22975140810012817, -0.21837514638900757, -0.20699891448020935, -0.19562268257141113, -0.18424645066261292, -0.1728702187538147, -0.16149398684501648, -0.15011772513389587, -0.13874149322509766, -0.12736526131629944, -0.11598902940750122, -0.104612797498703, -0.09323656558990479, -0.08186033368110657, -0.07048407196998596, -0.059107840061187744, -0.047731608152389526, -0.03635537624359131, -0.02497914433479309, -0.013602912425994873, -0.0022266507148742676, 0.00914958119392395, 0.02052578330039978, 0.031902045011520386, 0.04327830672264099, 0.05465450882911682, 0.06603077054023743, 0.07740697264671326, 0.08878323435783386, 0.10015943646430969, 0.1115356981754303, 0.1229119598865509, 0.13428816199302673, 0.14566442370414734, 0.15704062581062317, 0.16841688752174377, 0.17979314923286438, 0.1911693513393402, 0.20254561305046082, 0.21392181515693665, 0.22529807686805725, 0.23667427897453308, 0.2480505406856537]}, "gradients/fc1.bias": {"_type": "histogram", "values": [1.0, 0.0, 0.0, 0.0, 0.0, 0.0, 0.0, 0.0, 0.0, 0.0, 0.0, 0.0, 1.0, 0.0, 0.0, 0.0, 1.0, 0.0, 0.0, 0.0, 0.0, 0.0, 0.0, 0.0, 0.0, 0.0, 0.0, 0.0, 0.0, 0.0, 0.0, 0.0, 0.0, 0.0, 0.0, 1.0, 0.0, 1.0, 0.0, 0.0, 0.0, 0.0, 0.0, 0.0, 1.0, 0.0, 0.0, 0.0, 0.0, 0.0, 0.0, 0.0, 0.0, 1.0, 0.0, 0.0, 0.0, 0.0, 1.0, 0.0, 0.0, 0.0, 0.0, 1.0], "bins": [-0.967698335647583, -0.9463325142860413, -0.9249667525291443, -0.9036009311676025, -0.8822351694107056, -0.8608693480491638, -0.8395035862922668, -0.8181377649307251, -0.7967720031738281, -0.7754061818122864, -0.7540404200553894, -0.7326745986938477, -0.7113088369369507, -0.6899430155754089, -0.6685771942138672, -0.6472114324569702, -0.6258456707000732, -0.6044798493385315, -0.5831140279769897, -0.5617482662200928, -0.5403825044631958, -0.519016683101654, -0.4976508915424347, -0.47628509998321533, -0.4549192786216736, -0.4335535168647766, -0.41218769550323486, -0.3908219337463379, -0.36945611238479614, -0.34809035062789917, -0.3267245292663574, -0.30535876750946045, -0.2839929461479187, -0.26262712478637695, -0.24126136302947998, -0.21989554166793823, -0.19852977991104126, -0.1771639585494995, -0.15579819679260254, -0.1344323754310608, -0.11306661367416382, -0.09170079231262207, -0.0703350305557251, -0.04896920919418335, -0.027603447437286377, -0.006237626075744629, 0.015128135681152344, 0.036493897438049316, 0.05785977840423584, 0.07922554016113281, 0.10059130191802979, 0.12195718288421631, 0.14332294464111328, 0.16468870639801025, 0.18605446815490723, 0.20742034912109375, 0.22878611087799072, 0.2501518726348877, 0.27151763439178467, 0.2928835153579712, 0.31424927711486816, 0.33561503887176514, 0.3569808006286621, 0.37834668159484863, 0.3997124433517456]}, "gradients/fc4.weight": {"_type": "histogram", "values": [2.0, 0.0, 0.0, 0.0, 0.0, 3.0, 0.0, 0.0, 0.0, 0.0, 0.0, 1.0, 0.0, 0.0, 0.0, 0.0, 0.0, 2.0, 2.0, 0.0, 1.0, 1.0, 2.0, 2.0, 0.0, 1.0, 2.0, 2.0, 1.0, 5.0, 5.0, 6.0, 8.0, 7.0, 13.0, 18.0, 27.0, 223.0, 47.0, 25.0, 27.0, 14.0, 10.0, 7.0, 5.0, 3.0, 8.0, 0.0, 1.0, 1.0, 2.0, 3.0, 3.0, 3.0, 1.0, 0.0, 0.0, 1.0, 1.0, 1.0, 1.0, 0.0, 0.0, 2.0], "bins": [-0.14847666025161743, -0.14454251527786255, -0.14060837030410767, -0.13667424023151398, -0.1327400952577591, -0.1288059502840042, -0.12487181276082993, -0.12093767523765564, -0.11700353026390076, -0.11306938529014587, -0.10913524776697159, -0.1052011102437973, -0.10126696527004242, -0.09733282029628754, -0.09339868277311325, -0.08946454524993896, -0.08553040027618408, -0.0815962553024292, -0.07766211777925491, -0.07372798025608063, -0.06979383528232574, -0.06585969030857086, -0.061925552785396576, -0.05799141526222229, -0.05405727028846741, -0.050123125314712524, -0.04618898779153824, -0.04225485026836395, -0.03832070529460907, -0.03438656032085419, -0.0304524227976799, -0.026518285274505615, -0.022584140300750732, -0.01864999532699585, -0.014715850353240967, -0.010781720280647278, -0.006847575306892395, -0.002913430333137512, 0.0010206997394561768, 0.00495484471321106, 0.008888989686965942, 0.012823134660720825, 0.016757279634475708, 0.020691409707069397, 0.02462555468082428, 0.028559699654579163, 0.03249382972717285, 0.036427974700927734, 0.04036211967468262, 0.0442962646484375, 0.04823040962219238, 0.05216453969478607, 0.056098684668540955, 0.06003282964229584, 0.06396695971488953, 0.06790110468864441, 0.07183524966239929, 0.07576939463615417, 0.07970353960990906, 0.08363766968250275, 0.08757181465625763, 0.09150595963001251, 0.0954400897026062, 0.09937423467636108, 0.10330837965011597]}, "gradients/fc3.bias": {"_type": "histogram", "values": [1.0, 0.0, 0.0, 0.0, 0.0, 0.0, 0.0, 0.0, 0.0, 0.0, 0.0, 1.0, 0.0, 0.0, 0.0, 2.0, 0.0, 3.0, 0.0, 0.0, 1.0, 2.0, 0.0, 0.0, 0.0, 3.0, 1.0, 0.0, 1.0, 1.0, 0.0, 2.0, 0.0, 2.0, 1.0, 0.0, 1.0, 2.0, 18.0, 1.0, 0.0, 0.0, 0.0, 1.0, 1.0, 0.0, 1.0, 0.0, 0.0, 0.0, 1.0, 1.0, 0.0, 0.0, 0.0, 0.0, 1.0, 0.0, 0.0, 0.0, 0.0, 0.0, 0.0, 1.0], "bins": [-0.060675058513879776, -0.05909803882241249, -0.05752101540565491, -0.05594399571418762, -0.05436697602272034, -0.05278995633125305, -0.05121293291449547, -0.04963591322302818, -0.0480588935315609, -0.046481870114803314, -0.04490485042333603, -0.043327830731868744, -0.04175081104040146, -0.040173791348934174, -0.03859676793217659, -0.037019748240709305, -0.03544272482395172, -0.033865705132484436, -0.03228868544101715, -0.030711663886904716, -0.029134642332792282, -0.027557622641324997, -0.025980602949857712, -0.024403583258390427, -0.022826559841632843, -0.021249540150165558, -0.019672520458698273, -0.01809549704194069, -0.016518477350473404, -0.014941457659006119, -0.013364437967538834, -0.01178741455078125, -0.010210394859313965, -0.00863337516784668, -0.007056351751089096, -0.005479332059621811, -0.0039023123681545258, -0.0023252926766872406, -0.000748269259929657, 0.0008287504315376282, 0.002405773848295212, 0.003982793539762497, 0.005559813231229782, 0.007136832922697067, 0.008713852614164352, 0.010290872305631638, 0.011867891997098923, 0.013444919139146805, 0.01502193883061409, 0.016598958522081375, 0.01817597821354866, 0.019752997905015945, 0.02133001759648323, 0.022907037287950516, 0.024484064429998398, 0.026061084121465683, 0.027638103812932968, 0.029215123504400253, 0.03079214319586754, 0.032369162887334824, 0.03394618257880211, 0.03552320972084999, 0.037100229412317276, 0.03867724910378456, 0.040254268795251846]}}
