{"_runtime": 64.98374056816101, "_timestamp": 1580205815.7809258, "epoch": 0, "_step": 290, "graph_0": {"_type": "graph", "format": "torch", "nodes": [{"name": "fc1", "id": 140314470286736, "class_name": "Linear(in_features=9, out_features=9, bias=True)", "parameters": [["weight", [9, 9]], ["bias", [9]]], "output_shape": [[1, 9]], "num_parameters": [81, 9]}, {"name": "fc2", "id": 140314470286032, "class_name": "Linear(in_features=9, out_features=20, bias=True)", "parameters": [["weight", [20, 9]], ["bias", [20]]], "output_shape": [[1, 20]], "num_parameters": [180, 20]}, {"name": "fc3", "id": 140314470289168, "class_name": "Linear(in_features=20, out_features=50, bias=True)", "parameters": [["weight", [50, 20]], ["bias", [50]]], "output_shape": [[1, 50]], "num_parameters": [1000, 50]}, {"name": "fc4", "id": 140314470289232, "class_name": "Linear(in_features=50, out_features=10, bias=True)", "parameters": [["weight", [10, 50]], ["bias", [10]]], "output_shape": [[1, 10]], "num_parameters": [500, 10]}], "edges": []}, "loss": 2.3983206748962402, "gradients/fc1.bias": {"_type": "histogram", "values": [1.0, 0.0, 0.0, 0.0, 0.0, 0.0, 0.0, 0.0, 0.0, 0.0, 1.0, 0.0, 0.0, 0.0, 0.0, 0.0, 0.0, 0.0, 0.0, 0.0, 0.0, 0.0, 0.0, 0.0, 6.0, 0.0, 0.0, 0.0, 0.0, 0.0, 0.0, 0.0, 0.0, 0.0, 0.0, 0.0, 0.0, 0.0, 0.0, 0.0, 0.0, 0.0, 0.0, 0.0, 0.0, 0.0, 0.0, 0.0, 0.0, 0.0, 0.0, 0.0, 0.0, 0.0, 0.0, 0.0, 0.0, 0.0, 0.0, 0.0, 0.0, 0.0, 0.0, 1.0], "bins": [-0.06594525277614594, -0.06321538239717484, -0.06048550456762314, -0.05775563418865204, -0.05502575635910034, -0.05229588598012924, -0.049566011875867844, -0.046836137771606445, -0.04410626366734505, -0.04137638956308365, -0.03864651545882225, -0.03591664135456085, -0.03318677097558975, -0.030456896871328354, -0.027727022767066956, -0.024997148662805557, -0.02226727455854416, -0.01953740045428276, -0.016807526350021362, -0.014077652245759964, -0.011347778141498566, -0.008617907762527466, -0.0058880336582660675, -0.003158159554004669, -0.00042828917503356934, 0.0023015886545181274, 0.005031459033489227, 0.007761336863040924, 0.010491207242012024, 0.01322108507156372, 0.01595095545053482, 0.018680833280086517, 0.021410703659057617, 0.024140574038028717, 0.026870451867580414, 0.029600322246551514, 0.03233020007610321, 0.03506007045507431, 0.03778994828462601, 0.04051981866359711, 0.043249696493148804, 0.045979566872119904, 0.048709437251091, 0.0514393150806427, 0.0541691854596138, 0.0568990632891655, 0.0596289336681366, 0.06235881149768829, 0.0650886744260788, 0.0678185522556305, 0.07054843008518219, 0.07327830791473389, 0.07600817084312439, 0.07873804867267609, 0.08146792650222778, 0.08419780433177948, 0.08692766726016998, 0.08965754508972168, 0.09238742291927338, 0.09511728584766388, 0.09784716367721558, 0.10057704150676727, 0.10330691933631897, 0.10603678226470947, 0.10876666009426117]}, "gradients/fc3.weight": {"_type": "histogram", "values": [2.0, 0.0, 2.0, 0.0, 0.0, 0.0, 4.0, 0.0, 5.0, 2.0, 2.0, 3.0, 4.0, 2.0, 5.0, 3.0, 3.0, 2.0, 4.0, 4.0, 4.0, 8.0, 8.0, 11.0, 19.0, 37.0, 725.0, 31.0, 14.0, 16.0, 14.0, 7.0, 8.0, 4.0, 3.0, 4.0, 2.0, 1.0, 2.0, 1.0, 4.0, 3.0, 3.0, 2.0, 2.0, 3.0, 3.0, 1.0, 1.0, 3.0, 1.0, 0.0, 3.0, 0.0, 2.0, 0.0, 0.0, 1.0, 0.0, 0.0, 1.0, 0.0, 0.0, 1.0], "bins": [-0.07478215545415878, -0.07193095982074738, -0.06907976418733597, -0.06622856855392456, -0.06337738037109375, -0.06052618473768234, -0.057674989104270935, -0.05482379347085953, -0.05197260156273842, -0.04912140965461731, -0.0462702140212059, -0.043419018387794495, -0.04056782275438309, -0.03771663084626198, -0.03486543521285057, -0.03201424330472946, -0.029163047671318054, -0.026311852037906647, -0.023460660129785538, -0.02060946449637413, -0.01775827258825302, -0.014907076954841614, -0.012055881321430206, -0.009204685688018799, -0.006353490054607391, -0.003502301871776581, -0.0006511062383651733, 0.002200089395046234, 0.005051285028457642, 0.007902480661869049, 0.01075366884469986, 0.013604864478111267, 0.016456060111522675, 0.019307255744934082, 0.02215845137834549, 0.0250096395611763, 0.027860835194587708, 0.030712030827999115, 0.03356322646141052, 0.03641442209482193, 0.03926561027765274, 0.04211680591106415, 0.044968001544475555, 0.04781919717788696, 0.05067039281129837, 0.05352158099412918, 0.056372784078121185, 0.059223972260951996, 0.062075175344944, 0.06492636352777481, 0.06777755171060562, 0.07062875479459763, 0.07347994297742844, 0.07633114606142044, 0.07918233424425125, 0.08203352242708206, 0.08488472551107407, 0.08773591369390488, 0.09058711677789688, 0.09343830496072769, 0.0962894931435585, 0.0991406962275505, 0.10199188441038132, 0.10484308749437332, 0.10769427567720413]}, "gradients/fc4.weight": {"_type": "histogram", "values": [1.0, 0.0, 1.0, 0.0, 1.0, 1.0, 0.0, 0.0, 0.0, 0.0, 0.0, 0.0, 0.0, 0.0, 2.0, 1.0, 2.0, 0.0, 1.0, 0.0, 1.0, 0.0, 0.0, 0.0, 0.0, 0.0, 0.0, 0.0, 0.0, 0.0, 0.0, 0.0, 0.0, 3.0, 0.0, 0.0, 1.0, 0.0, 0.0, 0.0, 1.0, 2.0, 0.0, 2.0, 0.0, 0.0, 0.0, 0.0, 3.0, 0.0, 1.0, 306.0, 53.0, 27.0, 36.0, 32.0, 8.0, 3.0, 1.0, 3.0, 3.0, 0.0, 2.0, 2.0], "bins": [-0.5163059830665588, -0.5062336325645447, -0.4961612820625305, -0.48608890175819397, -0.4760165512561798, -0.46594420075416565, -0.4558718502521515, -0.44579949975013733, -0.4357271194458008, -0.4256547689437866, -0.41558241844177246, -0.4055100679397583, -0.39543771743774414, -0.38536536693573, -0.3752930164337158, -0.3652206361293793, -0.3551482856273651, -0.34507593512535095, -0.3350035548210144, -0.32493120431900024, -0.3148588538169861, -0.3047865033149719, -0.29471415281295776, -0.2846418023109436, -0.27456945180892944, -0.2644970715045929, -0.25442472100257874, -0.24435237050056458, -0.23428001999855042, -0.22420766949653625, -0.2141352891921997, -0.20406293869018555, -0.1939905881881714, -0.18391823768615723, -0.17384588718414307, -0.16377350687980652, -0.15370115637779236, -0.1436288058757782, -0.13355645537376404, -0.12348410487174988, -0.11341172456741333, -0.10333937406539917, -0.09326702356338501, -0.08319467306137085, -0.07312232255935669, -0.06304997205734253, -0.05297759175300598, -0.04290524125099182, -0.03283289074897766, -0.0227605402469635, -0.012688159942626953, -0.002615809440612793, 0.007456541061401367, 0.017528891563415527, 0.027601242065429688, 0.03767359256744385, 0.04774594306945801, 0.05781829357147217, 0.06789064407348633, 0.07796305418014526, 0.08803540468215942, 0.09810775518417358, 0.10818010568618774, 0.1182524561882019, 0.12832480669021606]}, "gradients/fc2.bias": {"_type": "histogram", "values": [1.0, 0.0, 1.0, 0.0, 1.0, 0.0, 0.0, 0.0, 0.0, 0.0, 0.0, 0.0, 0.0, 0.0, 0.0, 0.0, 0.0, 0.0, 6.0, 0.0, 1.0, 0.0, 0.0, 0.0, 1.0, 0.0, 1.0, 1.0, 0.0, 1.0, 0.0, 0.0, 0.0, 1.0, 0.0, 0.0, 0.0, 0.0, 0.0, 0.0, 0.0, 1.0, 0.0, 0.0, 0.0, 0.0, 0.0, 0.0, 1.0, 0.0, 1.0, 0.0, 0.0, 1.0, 0.0, 0.0, 0.0, 0.0, 0.0, 0.0, 0.0, 0.0, 0.0, 1.0], "bins": [-0.06789782643318176, -0.06430067121982574, -0.06070351600646973, -0.05710636079311371, -0.05350920557975769, -0.04991205036640167, -0.04631489887833595, -0.042717743664979935, -0.03912058845162392, -0.0355234332382679, -0.03192627802491188, -0.028329122811555862, -0.024731971323490143, -0.021134816110134125, -0.017537660896778107, -0.013940505683422089, -0.01034335047006607, -0.0067461952567100525, -0.0031490400433540344, 0.00044811517000198364, 0.004045270383358002, 0.00764242559671402, 0.011239580810070038, 0.014836736023426056, 0.018433883786201477, 0.022031038999557495, 0.025628194212913513, 0.02922534942626953, 0.03282250463962555, 0.03641965985298157, 0.040016815066337585, 0.043613970279693604, 0.04721112549304962, 0.05080828070640564, 0.05440543591976166, 0.058002591133117676, 0.061599746346473694, 0.06519690155982971, 0.06879405677318573, 0.07239121198654175, 0.07598836719989777, 0.07958552241325378, 0.0831826776266098, 0.08677983283996582, 0.09037698805332184, 0.09397414326667786, 0.09757129848003387, 0.10116845369338989, 0.10476559400558472, 0.10836274921894073, 0.11195990443229675, 0.11555705964565277, 0.11915421485900879, 0.12275137007236481, 0.12634852528572083, 0.12994568049907684, 0.13354283571243286, 0.13713999092578888, 0.1407371461391449, 0.14433430135250092, 0.14793145656585693, 0.15152861177921295, 0.15512576699256897, 0.158722922205925, 0.162320077419281]}, "gradients/fc4.bias": {"_type": "histogram", "values": [1.0, 0.0, 0.0, 0.0, 0.0, 0.0, 0.0, 0.0, 0.0, 0.0, 0.0, 0.0, 0.0, 0.0, 0.0, 0.0, 0.0, 0.0, 0.0, 0.0, 0.0, 0.0, 0.0, 0.0, 0.0, 0.0, 0.0, 0.0, 0.0, 0.0, 0.0, 0.0, 0.0, 0.0, 0.0, 0.0, 0.0, 0.0, 0.0, 0.0, 0.0, 0.0, 0.0, 0.0, 0.0, 0.0, 0.0, 0.0, 0.0, 0.0, 0.0, 0.0, 0.0, 0.0, 0.0, 4.0, 3.0, 1.0, 0.0, 0.0, 0.0, 0.0, 0.0, 1.0], "bins": [-0.9100663661956787, -0.8923123478889465, -0.8745583295822144, -0.8568042516708374, -0.8390502333641052, -0.821296215057373, -0.8035421967506409, -0.7857881784439087, -0.7680341005325317, -0.7502800822257996, -0.7325260639190674, -0.7147719860076904, -0.697018027305603, -0.6792639493942261, -0.6615099310874939, -0.6437559127807617, -0.6260018348693848, -0.6082478761672974, -0.5904937982559204, -0.5727397799491882, -0.554985761642456, -0.5372316837310791, -0.5194776654243469, -0.5017236471176147, -0.48396962881088257, -0.466215580701828, -0.4484615623950958, -0.43070751428604126, -0.4129534959793091, -0.3951994776725769, -0.37744539976119995, -0.3596913814544678, -0.3419373631477356, -0.3241833448410034, -0.30642932653427124, -0.2886752486228943, -0.2709212303161621, -0.25316721200942993, -0.23541319370269775, -0.2176591157913208, -0.19990509748458862, -0.18215107917785645, -0.16439706087112427, -0.1466430425643921, -0.12888896465301514, -0.11113494634628296, -0.09338092803955078, -0.0756269097328186, -0.057872891426086426, -0.04011881351470947, -0.022364795207977295, -0.004610776901245117, 0.01314324140548706, 0.030897319316864014, 0.04865133762359619, 0.06640535593032837, 0.08415937423706055, 0.1019134521484375, 0.1196674108505249, 0.13742148876190186, 0.1551755666732788, 0.1729295253753662, 0.19068360328674316, 0.20843756198883057, 0.22619163990020752]}, "gradients/fc2.weight": {"_type": "histogram", "values": [1.0, 0.0, 1.0, 0.0, 2.0, 1.0, 1.0, 1.0, 1.0, 1.0, 0.0, 0.0, 0.0, 2.0, 1.0, 1.0, 2.0, 0.0, 110.0, 4.0, 6.0, 3.0, 3.0, 4.0, 5.0, 3.0, 2.0, 3.0, 2.0, 2.0, 1.0, 0.0, 1.0, 2.0, 0.0, 0.0, 1.0, 0.0, 1.0, 1.0, 0.0, 3.0, 0.0, 1.0, 0.0, 1.0, 0.0, 0.0, 2.0, 0.0, 1.0, 0.0, 0.0, 1.0, 1.0, 0.0, 0.0, 0.0, 0.0, 0.0, 0.0, 0.0, 0.0, 1.0], "bins": [-0.03892211988568306, -0.03686006739735603, -0.03479801490902901, -0.03273596242070198, -0.030673909932374954, -0.028611857444047928, -0.026549803093075752, -0.024487750604748726, -0.0224256981164217, -0.020363645628094673, -0.018301593139767647, -0.01623954065144062, -0.014177486300468445, -0.012115433812141418, -0.010053381323814392, -0.007991328835487366, -0.005929276347160339, -0.003867223858833313, -0.0018051713705062866, 0.00025688111782073975, 0.002318933606147766, 0.0043809860944747925, 0.006443038582801819, 0.008505091071128845, 0.01056714728474617, 0.012629199773073196, 0.014691252261400223, 0.01675330474972725, 0.018815357238054276, 0.020877409726381302, 0.022939462214708328, 0.025001514703035355, 0.02706356719136238, 0.029125619679689407, 0.031187672168016434, 0.03324972465634346, 0.035311777144670486, 0.03737382963299751, 0.03943588212132454, 0.041497934609651566, 0.04355998709797859, 0.04562203958630562, 0.047684092074632645, 0.04974614456295967, 0.0518081970512867, 0.053870249539613724, 0.05593230202794075, 0.057994354516267776, 0.0600564144551754, 0.062118466943502426, 0.06418052315711975, 0.06624257564544678, 0.0683046281337738, 0.07036668062210083, 0.07242873311042786, 0.07449078559875488, 0.07655283808708191, 0.07861489057540894, 0.08067694306373596, 0.08273899555206299, 0.08480104804039001, 0.08686310052871704, 0.08892515301704407, 0.0909872055053711, 0.09304925799369812]}, "gradients/fc1.weight": {"_type": "histogram", "values": [4.0, 0.0, 0.0, 0.0, 0.0, 0.0, 0.0, 0.0, 0.0, 0.0, 4.0, 0.0, 1.0, 0.0, 0.0, 0.0, 0.0, 1.0, 0.0, 0.0, 0.0, 0.0, 0.0, 0.0, 66.0, 0.0, 0.0, 0.0, 0.0, 0.0, 0.0, 0.0, 0.0, 0.0, 0.0, 0.0, 0.0, 0.0, 0.0, 0.0, 0.0, 0.0, 0.0, 0.0, 1.0, 0.0, 0.0, 0.0, 0.0, 0.0, 0.0, 0.0, 0.0, 0.0, 0.0, 0.0, 0.0, 0.0, 0.0, 0.0, 0.0, 0.0, 0.0, 4.0], "bins": [-0.06594525277614594, -0.06321538239717484, -0.06048550456762314, -0.05775563418865204, -0.05502575635910034, -0.05229588598012924, -0.049566011875867844, -0.046836137771606445, -0.04410626366734505, -0.04137638956308365, -0.03864651545882225, -0.03591664135456085, -0.03318677097558975, -0.030456896871328354, -0.027727022767066956, -0.024997148662805557, -0.02226727455854416, -0.01953740045428276, -0.016807526350021362, -0.014077652245759964, -0.011347778141498566, -0.008617907762527466, -0.0058880336582660675, -0.003158159554004669, -0.00042828917503356934, 0.0023015886545181274, 0.005031459033489227, 0.007761336863040924, 0.010491207242012024, 0.01322108507156372, 0.01595095545053482, 0.018680833280086517, 0.021410703659057617, 0.024140574038028717, 0.026870451867580414, 0.029600322246551514, 0.03233020007610321, 0.03506007045507431, 0.03778994828462601, 0.04051981866359711, 0.043249696493148804, 0.045979566872119904, 0.048709437251091, 0.0514393150806427, 0.0541691854596138, 0.0568990632891655, 0.0596289336681366, 0.06235881149768829, 0.0650886744260788, 0.0678185522556305, 0.07054843008518219, 0.07327830791473389, 0.07600817084312439, 0.07873804867267609, 0.08146792650222778, 0.08419780433177948, 0.08692766726016998, 0.08965754508972168, 0.09238742291927338, 0.09511728584766388, 0.09784716367721558, 0.10057704150676727, 0.10330691933631897, 0.10603678226470947, 0.10876666009426117]}, "gradients/fc3.bias": {"_type": "histogram", "values": [2.0, 0.0, 0.0, 0.0, 0.0, 0.0, 2.0, 0.0, 1.0, 0.0, 1.0, 0.0, 0.0, 0.0, 1.0, 0.0, 0.0, 0.0, 1.0, 1.0, 0.0, 0.0, 0.0, 1.0, 0.0, 0.0, 27.0, 0.0, 0.0, 0.0, 3.0, 0.0, 0.0, 1.0, 0.0, 2.0, 0.0, 0.0, 0.0, 0.0, 0.0, 1.0, 0.0, 0.0, 0.0, 0.0, 1.0, 0.0, 1.0, 0.0, 0.0, 0.0, 2.0, 0.0, 0.0, 0.0, 0.0, 1.0, 0.0, 0.0, 0.0, 0.0, 0.0, 1.0], "bins": [-0.12142964452505112, -0.11679993569850922, -0.11217022687196732, -0.10754051804542542, -0.10291081666946411, -0.09828110784292221, -0.09365139901638031, -0.089021697640419, -0.08439198136329651, -0.0797622799873352, -0.0751325711607933, -0.0705028623342514, -0.0658731535077095, -0.0612434484064579, -0.0566137433052063, -0.0519840344786644, -0.0473543256521225, -0.0427246168255806, -0.038094907999038696, -0.03346520662307739, -0.028835497796535492, -0.02420578896999359, -0.01957608014345169, -0.01494637131690979, -0.01031666249036789, -0.005686961114406586, -0.001057252287864685, 0.0035724565386772156, 0.00820215791463852, 0.012831874191761017, 0.01746157556772232, 0.022091291844844818, 0.026720993220806122, 0.031350694596767426, 0.03598041087388992, 0.04061011224985123, 0.045239828526973724, 0.04986952990293503, 0.05449923127889633, 0.05912894755601883, 0.06375864893198013, 0.06838836520910263, 0.07301806658506393, 0.07764776796102524, 0.08227748423814774, 0.08690718561410904, 0.09153690189123154, 0.09616660326719284, 0.10079631954431534, 0.10542602092027664, 0.11005572229623795, 0.11468543857336044, 0.11931513994932175, 0.12394485622644424, 0.12857455015182495, 0.13320425152778625, 0.13783395290374756, 0.14246368408203125, 0.14709338545799255, 0.15172308683395386, 0.15635278820991516, 0.16098248958587646, 0.16561222076416016, 0.17024192214012146, 0.17487162351608276]}}
