{"epoch": 0, "_runtime": 37.455157995224, "_timestamp": 1580205788.2523432, "_step": 0}
{"loss": 2.430406093597412, "_runtime": 37.73643445968628, "_timestamp": 1580205788.5336196, "_step": 1}
{"loss": 2.434370994567871, "_runtime": 37.82809495925903, "_timestamp": 1580205788.6252801, "_step": 2}
{"loss": 2.2211508750915527, "_runtime": 37.9145565032959, "_timestamp": 1580205788.7117417, "_step": 3}
{"loss": 2.363319158554077, "_runtime": 38.01595330238342, "_timestamp": 1580205788.8131385, "_step": 4}
{"loss": 2.2957346439361572, "_runtime": 38.12952995300293, "_timestamp": 1580205788.9267151, "_step": 5}
{"loss": 2.266639471054077, "_runtime": 38.226332664489746, "_timestamp": 1580205789.0235178, "_step": 6}
{"loss": 2.3599724769592285, "_runtime": 38.32942461967468, "_timestamp": 1580205789.1266098, "_step": 7}
{"loss": 2.2743141651153564, "_runtime": 38.43127965927124, "_timestamp": 1580205789.2284648, "_step": 8}
{"loss": 2.28782057762146, "_runtime": 38.538711071014404, "_timestamp": 1580205789.3358963, "_step": 9}
{"loss": 2.337289810180664, "_runtime": 38.65084624290466, "_timestamp": 1580205789.4480314, "_step": 10}
{"loss": 2.334990978240967, "_runtime": 38.749852657318115, "_timestamp": 1580205789.5470378, "_step": 11}
{"loss": 2.3532443046569824, "_runtime": 38.848819732666016, "_timestamp": 1580205789.646005, "_step": 12}
{"loss": 2.2073028087615967, "_runtime": 38.95979142189026, "_timestamp": 1580205789.7569766, "_step": 13}
{"loss": 2.3292548656463623, "_runtime": 39.04933309555054, "_timestamp": 1580205789.8465183, "_step": 14}
{"loss": 2.3183584213256836, "_runtime": 39.1505823135376, "_timestamp": 1580205789.9477675, "_step": 15}
{"loss": 2.3062918186187744, "_runtime": 39.239540100097656, "_timestamp": 1580205790.0367253, "_step": 16}
{"loss": 2.295318841934204, "_runtime": 39.32926058769226, "_timestamp": 1580205790.1264458, "_step": 17}
{"loss": 2.3050310611724854, "_runtime": 39.41863679885864, "_timestamp": 1580205790.215822, "_step": 18}
{"loss": 2.218331813812256, "_runtime": 39.50753331184387, "_timestamp": 1580205790.3047185, "_step": 19}
{"loss": 2.253538131713867, "_runtime": 39.59639620780945, "_timestamp": 1580205790.3935814, "_step": 20}
{"loss": 2.210782527923584, "_runtime": 39.72835969924927, "_timestamp": 1580205790.525545, "_step": 21}
{"loss": 2.4352223873138428, "_runtime": 39.81734251976013, "_timestamp": 1580205790.6145277, "_step": 22}
{"loss": 2.26737117767334, "_runtime": 39.911348819732666, "_timestamp": 1580205790.708534, "_step": 23}
{"loss": 2.2258265018463135, "_runtime": 40.00649285316467, "_timestamp": 1580205790.803678, "_step": 24}
{"loss": 2.2493104934692383, "_runtime": 40.09590148925781, "_timestamp": 1580205790.8930867, "_step": 25}
{"loss": 2.2569961547851562, "_runtime": 40.1837797164917, "_timestamp": 1580205790.980965, "_step": 26}
{"loss": 2.2557835578918457, "_runtime": 40.26235914230347, "_timestamp": 1580205791.0595443, "_step": 27}
{"loss": 2.2496955394744873, "_runtime": 40.34988737106323, "_timestamp": 1580205791.1470726, "_step": 28}
{"loss": 2.239409923553467, "_runtime": 40.463480949401855, "_timestamp": 1580205791.2606661, "_step": 29}
{"loss": 2.2211687564849854, "_runtime": 40.56169557571411, "_timestamp": 1580205791.3588808, "_step": 30}
{"loss": 2.2862823009490967, "_runtime": 40.66276407241821, "_timestamp": 1580205791.4599493, "_step": 31}
{"loss": 2.2154078483581543, "_runtime": 40.76305890083313, "_timestamp": 1580205791.560244, "_step": 32}
{"loss": 2.2153968811035156, "_runtime": 40.865638732910156, "_timestamp": 1580205791.662824, "_step": 33}
{"loss": 2.4223008155822754, "_runtime": 40.97547674179077, "_timestamp": 1580205791.772662, "_step": 34}
{"loss": 2.2283828258514404, "_runtime": 41.07637643814087, "_timestamp": 1580205791.8735616, "_step": 35}
{"loss": 2.256868600845337, "_runtime": 41.183435916900635, "_timestamp": 1580205791.980621, "_step": 36}
{"loss": 2.3864364624023438, "_runtime": 41.29610228538513, "_timestamp": 1580205792.0932875, "_step": 37}
{"loss": 2.416140556335449, "_runtime": 41.40965938568115, "_timestamp": 1580205792.2068446, "_step": 38}
{"loss": 2.218024492263794, "_runtime": 41.53183960914612, "_timestamp": 1580205792.3290248, "_step": 39}
{"loss": 2.1694347858428955, "_runtime": 41.63039493560791, "_timestamp": 1580205792.42758, "_step": 40}
{"loss": 2.242685556411743, "_runtime": 41.720627307891846, "_timestamp": 1580205792.5178125, "_step": 41}
{"loss": 2.1798319816589355, "_runtime": 41.82153081893921, "_timestamp": 1580205792.618716, "_step": 42}
{"loss": 2.4701993465423584, "_runtime": 41.90960431098938, "_timestamp": 1580205792.7067895, "_step": 43}
{"loss": 2.184136390686035, "_runtime": 41.998597383499146, "_timestamp": 1580205792.7957826, "_step": 44}
{"loss": 2.2112462520599365, "_runtime": 42.0874981880188, "_timestamp": 1580205792.8846834, "_step": 45}
{"loss": 2.368123769760132, "_runtime": 42.177478551864624, "_timestamp": 1580205792.9746637, "_step": 46}
{"loss": 2.3596107959747314, "_runtime": 42.274967670440674, "_timestamp": 1580205793.0721529, "_step": 47}
{"loss": 2.267832040786743, "_runtime": 42.36650514602661, "_timestamp": 1580205793.1636903, "_step": 48}
{"loss": 2.389280080795288, "_runtime": 42.46186900138855, "_timestamp": 1580205793.2590542, "_step": 49}
{"loss": 2.1391441822052, "_runtime": 42.55322265625, "_timestamp": 1580205793.3504078, "_step": 50}
{"loss": 2.3139238357543945, "_runtime": 42.643174171447754, "_timestamp": 1580205793.4403594, "_step": 51}
{"loss": 2.2467706203460693, "_runtime": 42.73284459114075, "_timestamp": 1580205793.5300298, "_step": 52}
{"loss": 2.3550374507904053, "_runtime": 42.831748723983765, "_timestamp": 1580205793.628934, "_step": 53}
{"loss": 2.2474660873413086, "_runtime": 42.92235064506531, "_timestamp": 1580205793.7195358, "_step": 54}
{"loss": 2.3804802894592285, "_runtime": 43.02089047431946, "_timestamp": 1580205793.8180757, "_step": 55}
{"loss": 2.459030866622925, "_runtime": 43.109678745269775, "_timestamp": 1580205793.906864, "_step": 56}
{"loss": 2.2863450050354004, "_runtime": 43.19869542121887, "_timestamp": 1580205793.9958806, "_step": 57}
{"loss": 2.2610092163085938, "_runtime": 43.311070680618286, "_timestamp": 1580205794.1082559, "_step": 58}
{"loss": 2.1225125789642334, "_runtime": 43.42084074020386, "_timestamp": 1580205794.218026, "_step": 59}
{"loss": 2.1216256618499756, "_runtime": 43.522075176239014, "_timestamp": 1580205794.3192604, "_step": 60}
{"loss": 2.370962381362915, "_runtime": 43.63190984725952, "_timestamp": 1580205794.429095, "_step": 61}
{"loss": 2.3122472763061523, "_runtime": 43.732717514038086, "_timestamp": 1580205794.5299027, "_step": 62}
{"loss": 2.3131320476531982, "_runtime": 43.83194041252136, "_timestamp": 1580205794.6291256, "_step": 63}
{"loss": 2.137986898422241, "_runtime": 43.932674407958984, "_timestamp": 1580205794.7298596, "_step": 64}
{"loss": 2.3753294944763184, "_runtime": 44.02982568740845, "_timestamp": 1580205794.8270109, "_step": 65}
{"loss": 2.214571475982666, "_runtime": 44.13299298286438, "_timestamp": 1580205794.9301782, "_step": 66}
{"loss": 2.127026319503784, "_runtime": 44.24412751197815, "_timestamp": 1580205795.0413127, "_step": 67}
{"loss": 2.1237103939056396, "_runtime": 44.35453915596008, "_timestamp": 1580205795.1517243, "_step": 68}
{"loss": 2.1300888061523438, "_runtime": 44.44079542160034, "_timestamp": 1580205795.2379806, "_step": 69}
{"loss": 2.1061923503875732, "_runtime": 44.53271746635437, "_timestamp": 1580205795.3299026, "_step": 70}
{"loss": 2.109039068222046, "_runtime": 44.61817002296448, "_timestamp": 1580205795.4153552, "_step": 71}
{"loss": 2.103548765182495, "_runtime": 44.708226919174194, "_timestamp": 1580205795.505412, "_step": 72}
{"loss": 2.2639694213867188, "_runtime": 44.79762554168701, "_timestamp": 1580205795.5948107, "_step": 73}
{"loss": 2.2646443843841553, "_runtime": 44.89014148712158, "_timestamp": 1580205795.6873267, "_step": 74}
{"loss": 2.2481017112731934, "_runtime": 44.988797187805176, "_timestamp": 1580205795.7859824, "_step": 75}
{"loss": 2.0641627311706543, "_runtime": 45.07863926887512, "_timestamp": 1580205795.8758245, "_step": 76}
{"loss": 2.2492051124572754, "_runtime": 45.166715145111084, "_timestamp": 1580205795.9639003, "_step": 77}
{"loss": 2.2891407012939453, "_runtime": 45.26756954193115, "_timestamp": 1580205796.0647547, "_step": 78}
{"loss": 2.0625035762786865, "_runtime": 45.35509204864502, "_timestamp": 1580205796.1522772, "_step": 79}
{"loss": 2.1976540088653564, "_runtime": 45.44459366798401, "_timestamp": 1580205796.2417789, "_step": 80}
{"loss": 2.5831100940704346, "_runtime": 45.53351354598999, "_timestamp": 1580205796.3306987, "_step": 81}
{"loss": 2.2539279460906982, "_runtime": 45.623337745666504, "_timestamp": 1580205796.420523, "_step": 82}
{"loss": 2.044893264770508, "_runtime": 45.711220502853394, "_timestamp": 1580205796.5084057, "_step": 83}
{"loss": 2.389695167541504, "_runtime": 45.80095720291138, "_timestamp": 1580205796.5981424, "_step": 84}
{"loss": 2.3203461170196533, "_runtime": 45.889055252075195, "_timestamp": 1580205796.6862404, "_step": 85}
{"loss": 2.0181286334991455, "_runtime": 45.99029874801636, "_timestamp": 1580205796.787484, "_step": 86}
{"loss": 2.510631561279297, "_runtime": 46.08906626701355, "_timestamp": 1580205796.8862514, "_step": 87}
{"loss": 2.2638254165649414, "_runtime": 46.190428495407104, "_timestamp": 1580205796.9876137, "_step": 88}
{"loss": 2.0318150520324707, "_runtime": 46.300161838531494, "_timestamp": 1580205797.097347, "_step": 89}
{"loss": 2.2609994411468506, "_runtime": 46.39037275314331, "_timestamp": 1580205797.187558, "_step": 90}
{"loss": 2.240654230117798, "_runtime": 46.48902368545532, "_timestamp": 1580205797.2862089, "_step": 91}
{"loss": 1.9793190956115723, "_runtime": 46.57958745956421, "_timestamp": 1580205797.3767726, "_step": 92}
{"loss": 2.353405714035034, "_runtime": 46.67494177818298, "_timestamp": 1580205797.472127, "_step": 93}
{"loss": 2.3551106452941895, "_runtime": 46.77885317802429, "_timestamp": 1580205797.5760384, "_step": 94}
{"loss": 2.25765323638916, "_runtime": 46.88896346092224, "_timestamp": 1580205797.6861486, "_step": 95}
{"loss": 2.2215194702148438, "_runtime": 46.985822916030884, "_timestamp": 1580205797.783008, "_step": 96}
{"loss": 2.27432918548584, "_runtime": 47.07417345046997, "_timestamp": 1580205797.8713586, "_step": 97}
{"loss": 2.008810043334961, "_runtime": 47.16381549835205, "_timestamp": 1580205797.9610007, "_step": 98}
{"loss": 2.246683120727539, "_runtime": 47.255218505859375, "_timestamp": 1580205798.0524037, "_step": 99}
{"gradients/fc4.bias": {"_type": "histogram", "values": [1.0, 0.0, 0.0, 0.0, 0.0, 0.0, 0.0, 0.0, 0.0, 0.0, 0.0, 0.0, 0.0, 0.0, 0.0, 0.0, 0.0, 0.0, 0.0, 0.0, 0.0, 0.0, 0.0, 0.0, 0.0, 0.0, 0.0, 0.0, 0.0, 0.0, 0.0, 0.0, 0.0, 0.0, 0.0, 0.0, 0.0, 0.0, 0.0, 0.0, 0.0, 0.0, 0.0, 0.0, 0.0, 0.0, 0.0, 0.0, 0.0, 0.0, 0.0, 0.0, 0.0, 0.0, 0.0, 0.0, 0.0, 0.0, 0.0, 0.0, 2.0, 2.0, 4.0, 1.0], "bins": [-0.9052930474281311, -0.8890368342399597, -0.8727805614471436, -0.8565243482589722, -0.840268075466156, -0.8240118622779846, -0.8077555894851685, -0.7914993762969971, -0.7752431035041809, -0.7589868903160095, -0.7427306175231934, -0.726474404335022, -0.7102181911468506, -0.6939619183540344, -0.6777056455612183, -0.6614494323730469, -0.6451932191848755, -0.6289369463920593, -0.6126806735992432, -0.5964244604110718, -0.5801682472229004, -0.5639119744300842, -0.5476557016372681, -0.5313994884490967, -0.5151432752609253, -0.4988870322704315, -0.48263078927993774, -0.46637454628944397, -0.4501183032989502, -0.4338620603084564, -0.41760581731796265, -0.4013495445251465, -0.3850933313369751, -0.3688371181488037, -0.35258084535598755, -0.33632463216781616, -0.320068359375, -0.3038121461868286, -0.28755587339401245, -0.27129966020584106, -0.2550433874130249, -0.23878717422485352, -0.22253090143203735, -0.20627468824386597, -0.1900184154510498, -0.17376220226287842, -0.15750592947006226, -0.14124971628189087, -0.12499350309371948, -0.10873723030090332, -0.09248101711273193, -0.07622474431991577, -0.059968531131744385, -0.04371225833892822, -0.027456045150756836, -0.011199772357940674, 0.005056440830230713, 0.021312713623046875, 0.03756892681121826, 0.053825199604034424, 0.07008141279220581, 0.08633768558502197, 0.10259395837783813, 0.11885017156600952, 0.1351063847541809]}, "gradients/fc4.weight": {"_type": "histogram", "values": [1.0, 0.0, 2.0, 0.0, 0.0, 0.0, 0.0, 1.0, 0.0, 0.0, 0.0, 0.0, 0.0, 0.0, 1.0, 0.0, 1.0, 1.0, 0.0, 1.0, 0.0, 0.0, 0.0, 0.0, 1.0, 0.0, 0.0, 0.0, 0.0, 0.0, 0.0, 0.0, 2.0, 0.0, 0.0, 0.0, 0.0, 0.0, 1.0, 0.0, 0.0, 2.0, 3.0, 0.0, 1.0, 1.0, 1.0, 0.0, 0.0, 0.0, 0.0, 0.0, 1.0, 1.0, 0.0, 292.0, 37.0, 55.0, 17.0, 25.0, 24.0, 17.0, 8.0, 3.0], "bins": [-0.31362277269363403, -0.307991087436676, -0.302359402179718, -0.29672771692276, -0.291096031665802, -0.285464346408844, -0.279832661151886, -0.274200975894928, -0.2685692608356476, -0.2629375755786896, -0.25730589032173157, -0.25167420506477356, -0.24604251980781555, -0.24041083455085754, -0.23477914929389954, -0.22914746403694153, -0.22351577877998352, -0.2178840935230255, -0.2122523933649063, -0.2066207081079483, -0.2009890228509903, -0.1953573226928711, -0.18972563743591309, -0.18409395217895508, -0.17846226692199707, -0.17283058166503906, -0.16719889640808105, -0.16156721115112305, -0.15593552589416504, -0.15030382573604584, -0.14467214047908783, -0.13904045522212982, -0.13340876996517181, -0.1277770847082138, -0.1221453994512558, -0.11651371419429779, -0.11088201403617859, -0.10525032877922058, -0.09961864352226257, -0.09398695826530457, -0.08835527300834656, -0.08272358775138855, -0.07709188759326935, -0.07146020233631134, -0.06582851707935333, -0.06019681692123413, -0.05456513166427612, -0.048933446407318115, -0.04330176115036011, -0.0376700758934021, -0.03203839063644409, -0.026406705379486084, -0.020775020122528076, -0.015143334865570068, -0.00951164960861206, -0.0038799643516540527, 0.001751720905303955, 0.007383406162261963, 0.013015121221542358, 0.018646806478500366, 0.024278491735458374, 0.029910176992416382, 0.03554186224937439, 0.0411735475063324, 0.046805232763290405]}, "gradients/fc3.bias": {"_type": "histogram", "values": [1.0, 0.0, 0.0, 0.0, 0.0, 0.0, 0.0, 0.0, 0.0, 0.0, 3.0, 0.0, 1.0, 0.0, 0.0, 0.0, 0.0, 0.0, 1.0, 0.0, 1.0, 0.0, 0.0, 0.0, 1.0, 0.0, 1.0, 2.0, 1.0, 28.0, 0.0, 0.0, 0.0, 0.0, 0.0, 1.0, 1.0, 1.0, 0.0, 1.0, 0.0, 1.0, 1.0, 0.0, 0.0, 0.0, 1.0, 0.0, 0.0, 0.0, 1.0, 0.0, 0.0, 0.0, 0.0, 0.0, 0.0, 1.0, 0.0, 0.0, 0.0, 0.0, 0.0, 1.0], "bins": [-0.12421179562807083, -0.12000684440135956, -0.11580188572406769, -0.11159692704677582, -0.10739197582006454, -0.10318702459335327, -0.0989820659160614, -0.09477710723876953, -0.09057215601205826, -0.08636720478534698, -0.08216224610805511, -0.07795728743076324, -0.07375233620405197, -0.0695473849773407, -0.06534242630004883, -0.061137475073337555, -0.056932516396045685, -0.052727557718753815, -0.04852260649204254, -0.04431765526533127, -0.0401126965880394, -0.03590773791074753, -0.031702786684036255, -0.02749783545732498, -0.02329287678003311, -0.01908791810274124, -0.014882966876029968, -0.010678015649318695, -0.006473056972026825, -0.002268098294734955, 0.0019368454813957214, 0.0061418041586875916, 0.010346762835979462, 0.014551721513271332, 0.018756680190563202, 0.022961623966693878, 0.02716658264398575, 0.03137154132127762, 0.035576485097408295, 0.039781443774700165, 0.043986402451992035, 0.048191361129283905, 0.052396319806575775, 0.05660126358270645, 0.06080622225999832, 0.06501118093729019, 0.06921612471342087, 0.07342108339071274, 0.07762604206800461, 0.08183100074529648, 0.08603595942258835, 0.09024090319871902, 0.0944458618760109, 0.09865082055330276, 0.10285576432943344, 0.10706072300672531, 0.11126568168401718, 0.11547064036130905, 0.11967559903860092, 0.1238805428147316, 0.12808549404144287, 0.13229045271873474, 0.1364954113960266, 0.14070037007331848, 0.14490532875061035]}, "gradients/fc3.weight": {"_type": "histogram", "values": [1.0, 0.0, 0.0, 0.0, 1.0, 0.0, 0.0, 0.0, 1.0, 0.0, 3.0, 0.0, 1.0, 3.0, 1.0, 1.0, 3.0, 1.0, 3.0, 4.0, 5.0, 2.0, 10.0, 11.0, 5.0, 11.0, 7.0, 12.0, 32.0, 773.0, 9.0, 9.0, 15.0, 11.0, 11.0, 8.0, 8.0, 4.0, 6.0, 3.0, 6.0, 3.0, 3.0, 2.0, 1.0, 0.0, 1.0, 2.0, 1.0, 0.0, 1.0, 0.0, 0.0, 2.0, 0.0, 0.0, 0.0, 1.0, 0.0, 1.0, 0.0, 0.0, 0.0, 1.0], "bins": [-0.06632623821496964, -0.06408088654279709, -0.06183553859591484, -0.05959019064903259, -0.057344838976860046, -0.0550994910299778, -0.05285414308309555, -0.050608791410923004, -0.048363443464040756, -0.04611809551715851, -0.04387274384498596, -0.041627395898103714, -0.039382047951221466, -0.03713669627904892, -0.03489134833216667, -0.032645996659994125, -0.030400648713111877, -0.02815530076622963, -0.025909949094057083, -0.023664601147174835, -0.02141924947500229, -0.01917390152812004, -0.016928553581237793, -0.014683201909065247, -0.012437853962182999, -0.01019250601530075, -0.007947154343128204, -0.005701806396245956, -0.0034564584493637085, -0.0012111067771911621, 0.0010342448949813843, 0.0032795891165733337, 0.00552494078874588, 0.0077702924609184265, 0.010015636682510376, 0.012260988354682922, 0.014506340026855469, 0.016751684248447418, 0.018997035920619965, 0.02124238759279251, 0.023487739264965057, 0.025733083486557007, 0.027978435158729553, 0.0302237868309021, 0.03246913105249405, 0.034714482724666595, 0.03695983439683914, 0.03920517861843109, 0.04145053029060364, 0.043695881962776184, 0.045941226184368134, 0.04818657785654068, 0.050431929528713226, 0.052677273750305176, 0.05492262542247772, 0.05716797709465027, 0.05941332131624222, 0.061658672988414764, 0.06390402466058731, 0.06614937633275986, 0.0683947280049324, 0.07064006477594376, 0.0728854164481163, 0.07513076812028885, 0.0773761197924614]}, "gradients/fc2.bias": {"_type": "histogram", "values": [1.0, 0.0, 0.0, 0.0, 0.0, 0.0, 0.0, 0.0, 0.0, 0.0, 2.0, 1.0, 0.0, 1.0, 0.0, 0.0, 1.0, 0.0, 1.0, 0.0, 7.0, 0.0, 0.0, 1.0, 0.0, 0.0, 0.0, 0.0, 1.0, 0.0, 0.0, 0.0, 0.0, 0.0, 0.0, 0.0, 0.0, 1.0, 0.0, 1.0, 1.0, 0.0, 0.0, 0.0, 0.0, 0.0, 0.0, 0.0, 0.0, 0.0, 0.0, 0.0, 0.0, 0.0, 0.0, 0.0, 0.0, 0.0, 0.0, 0.0, 0.0, 0.0, 0.0, 1.0], "bins": [-0.05436307564377785, -0.05176370218396187, -0.04916432872414589, -0.04656495153903961, -0.04396557807922363, -0.041366204619407654, -0.038766831159591675, -0.036167457699775696, -0.03356808423995972, -0.03096870891749859, -0.02836933359503746, -0.02576996013522148, -0.023170586675405502, -0.020571213215589523, -0.017971836030483246, -0.015372462570667267, -0.012773089110851288, -0.010173715651035309, -0.00757434219121933, -0.004974965006113052, -0.0023755915462970734, 0.00022378191351890564, 0.0028231553733348846, 0.005422528833150864, 0.008021902292966843, 0.010621275752782822, 0.0132206492125988, 0.015820030122995377, 0.018419403582811356, 0.021018777042627335, 0.023618150502443314, 0.026217523962259293, 0.02881689742207527, 0.03141627088189125, 0.03401564434170723, 0.03661501780152321, 0.03921439126133919, 0.04181376472115517, 0.04441314563155174, 0.04701251909136772, 0.0496118925511837, 0.05221126601099968, 0.05481063947081566, 0.05741001293063164, 0.06000938639044762, 0.0626087635755539, 0.06520813703536987, 0.06780751049518585, 0.07040688395500183, 0.07300625741481781, 0.07560563087463379, 0.07820500433444977, 0.08080437779426575, 0.08340375125408173, 0.0860031396150589, 0.08860251307487488, 0.09120188653469086, 0.09380125999450684, 0.09640063345432281, 0.0990000069141388, 0.10159938037395477, 0.10419875383377075, 0.10679812729358673, 0.10939750075340271, 0.11199687421321869]}, "gradients/fc2.weight": {"_type": "histogram", "values": [1.0, 0.0, 0.0, 0.0, 1.0, 0.0, 0.0, 0.0, 0.0, 0.0, 2.0, 1.0, 2.0, 2.0, 0.0, 1.0, 1.0, 1.0, 1.0, 1.0, 154.0, 0.0, 0.0, 2.0, 0.0, 0.0, 0.0, 1.0, 1.0, 0.0, 0.0, 0.0, 0.0, 0.0, 1.0, 1.0, 1.0, 1.0, 0.0, 1.0, 1.0, 0.0, 0.0, 0.0, 0.0, 0.0, 0.0, 0.0, 0.0, 0.0, 0.0, 0.0, 0.0, 0.0, 0.0, 1.0, 0.0, 0.0, 0.0, 0.0, 0.0, 0.0, 0.0, 1.0], "bins": [-0.025317545980215073, -0.024106984958052635, -0.022896425798535347, -0.02168586477637291, -0.02047530561685562, -0.019264744594693184, -0.018054183572530746, -0.016843624413013458, -0.01563306525349617, -0.014422504231333733, -0.01321194414049387, -0.012001384049654007, -0.01079082302749157, -0.009580263867974281, -0.008369702845811844, -0.007159143686294556, -0.005948582664132118, -0.004738021641969681, -0.0035274624824523926, -0.002316901460289955, -0.001106342300772667, 0.00010421872138977051, 0.0013147778809070587, 0.002525338903069496, 0.0037358999252319336, 0.004946459084749222, 0.00615701824426651, 0.007367581129074097, 0.008578140288591385, 0.009788699448108673, 0.010999258607625961, 0.012209821492433548, 0.013420380651950836, 0.014630939811468124, 0.01584150269627571, 0.017052061855793, 0.018262621015310287, 0.019473180174827576, 0.020683743059635162, 0.02189430221915245, 0.02310486137866974, 0.024315424263477325, 0.025525983422994614, 0.026736542582511902, 0.02794710174202919, 0.029157664626836777, 0.030368223786354065, 0.03157878294587135, 0.03278934583067894, 0.03399990499019623, 0.035210464149713516, 0.036421023309230804, 0.03763158246874809, 0.03884214535355568, 0.040052708238363266, 0.041263263672590256, 0.04247382655739784, 0.04368438944220543, 0.04489494487643242, 0.046105507761240005, 0.047316063195466995, 0.04852662608027458, 0.04973718896508217, 0.05094774439930916, 0.052158307284116745]}, "gradients/fc1.bias": {"_type": "histogram", "values": [7.0, 0.0, 0.0, 0.0, 0.0, 0.0, 0.0, 0.0, 0.0, 0.0, 0.0, 0.0, 0.0, 0.0, 0.0, 1.0, 0.0, 0.0, 0.0, 0.0, 0.0, 0.0, 0.0, 0.0, 0.0, 0.0, 0.0, 0.0, 0.0, 0.0, 0.0, 0.0, 0.0, 0.0, 0.0, 0.0, 0.0, 0.0, 0.0, 0.0, 0.0, 0.0, 0.0, 0.0, 0.0, 0.0, 0.0, 0.0, 0.0, 0.0, 0.0, 0.0, 0.0, 0.0, 0.0, 0.0, 0.0, 0.0, 0.0, 0.0, 0.0, 0.0, 0.0, 1.0], "bins": [0.0, 0.0002623898326419294, 0.0005247796652838588, 0.0007871694979257882, 0.0010495593305677176, 0.0013119492214173079, 0.0015743389958515763, 0.0018367287702858448, 0.002099118661135435, 0.0023615085519850254, 0.0026238984428346157, 0.0028862881008535624, 0.0031486779917031527, 0.003411067882552743, 0.0036734575405716896, 0.00393584743142128, 0.00419823732227087, 0.0044606272131204605, 0.004723017103970051, 0.004985406994819641, 0.005247796885669231, 0.005510186310857534, 0.005772576201707125, 0.006034966092556715, 0.006297355983406305, 0.006559745874255896, 0.006822135765105486, 0.007084525655955076, 0.007346915081143379, 0.0076093049719929695, 0.00787169486284256, 0.00813408475369215, 0.00839647464454174, 0.00865886453539133, 0.008921254426240921, 0.009183644317090511, 0.009446034207940102, 0.009708424098789692, 0.009970813989639282, 0.010233203880488873, 0.010495593771338463, 0.010757982730865479, 0.011020372621715069, 0.011282762512564659, 0.01154515240341425, 0.01180754229426384, 0.01206993218511343, 0.01233232207596302, 0.01259471196681261, 0.012857101857662201, 0.013119491748511791, 0.013381881639361382, 0.013644271530210972, 0.013906661421060562, 0.014169051311910152, 0.014431441202759743, 0.014693830162286758, 0.014956220053136349, 0.015218609943985939, 0.01548099983483553, 0.01574338972568512, 0.016005780547857285, 0.0162681695073843, 0.016530560329556465, 0.01679294928908348]}, "gradients/fc1.weight": {"_type": "histogram", "values": [71.0, 0.0, 0.0, 0.0, 0.0, 0.0, 0.0, 1.0, 0.0, 0.0, 0.0, 0.0, 0.0, 0.0, 0.0, 4.0, 0.0, 0.0, 0.0, 0.0, 0.0, 0.0, 0.0, 0.0, 0.0, 0.0, 0.0, 0.0, 0.0, 0.0, 0.0, 0.0, 1.0, 0.0, 0.0, 0.0, 0.0, 0.0, 0.0, 0.0, 0.0, 0.0, 0.0, 0.0, 0.0, 0.0, 0.0, 0.0, 0.0, 0.0, 0.0, 0.0, 0.0, 0.0, 0.0, 0.0, 0.0, 0.0, 0.0, 0.0, 0.0, 0.0, 0.0, 4.0], "bins": [0.0, 0.0002623898326419294, 0.0005247796652838588, 0.0007871694979257882, 0.0010495593305677176, 0.0013119492214173079, 0.0015743389958515763, 0.0018367287702858448, 0.002099118661135435, 0.0023615085519850254, 0.0026238984428346157, 0.0028862881008535624, 0.0031486779917031527, 0.003411067882552743, 0.0036734575405716896, 0.00393584743142128, 0.00419823732227087, 0.0044606272131204605, 0.004723017103970051, 0.004985406994819641, 0.005247796885669231, 0.005510186310857534, 0.005772576201707125, 0.006034966092556715, 0.006297355983406305, 0.006559745874255896, 0.006822135765105486, 0.007084525655955076, 0.007346915081143379, 0.0076093049719929695, 0.00787169486284256, 0.00813408475369215, 0.00839647464454174, 0.00865886453539133, 0.008921254426240921, 0.009183644317090511, 0.009446034207940102, 0.009708424098789692, 0.009970813989639282, 0.010233203880488873, 0.010495593771338463, 0.010757982730865479, 0.011020372621715069, 0.011282762512564659, 0.01154515240341425, 0.01180754229426384, 0.01206993218511343, 0.01233232207596302, 0.01259471196681261, 0.012857101857662201, 0.013119491748511791, 0.013381881639361382, 0.013644271530210972, 0.013906661421060562, 0.014169051311910152, 0.014431441202759743, 0.014693830162286758, 0.014956220053136349, 0.015218609943985939, 0.01548099983483553, 0.01574338972568512, 0.016005780547857285, 0.0162681695073843, 0.016530560329556465, 0.01679294928908348]}, "loss": 2.3569679260253906, "_runtime": 47.34879183769226, "_timestamp": 1580205798.145977, "_step": 100}
{"loss": 2.5881481170654297, "_runtime": 47.44489097595215, "_timestamp": 1580205798.2420762, "_step": 101}
{"loss": 2.5225141048431396, "_runtime": 47.53523802757263, "_timestamp": 1580205798.3324232, "_step": 102}
{"loss": 1.9914544820785522, "_runtime": 47.623892307281494, "_timestamp": 1580205798.4210775, "_step": 103}
{"loss": 1.984823226928711, "_runtime": 47.71248412132263, "_timestamp": 1580205798.5096693, "_step": 104}
{"loss": 2.263960123062134, "_runtime": 47.80186128616333, "_timestamp": 1580205798.5990465, "_step": 105}
{"loss": 1.972794532775879, "_runtime": 47.891762018203735, "_timestamp": 1580205798.6889472, "_step": 106}
{"loss": 2.2230138778686523, "_runtime": 47.99048590660095, "_timestamp": 1580205798.787671, "_step": 107}
{"loss": 2.260226249694824, "_runtime": 48.07877159118652, "_timestamp": 1580205798.8759568, "_step": 108}
{"loss": 2.5397748947143555, "_runtime": 48.16495871543884, "_timestamp": 1580205798.962144, "_step": 109}
{"loss": 2.318798303604126, "_runtime": 48.25715947151184, "_timestamp": 1580205799.0543447, "_step": 110}
{"loss": 1.9604082107543945, "_runtime": 48.34626483917236, "_timestamp": 1580205799.14345, "_step": 111}
{"loss": 2.5168604850769043, "_runtime": 48.43488669395447, "_timestamp": 1580205799.2320719, "_step": 112}
{"loss": 2.345055103302002, "_runtime": 48.523831367492676, "_timestamp": 1580205799.3210166, "_step": 113}
{"loss": 2.2081048488616943, "_runtime": 48.60144233703613, "_timestamp": 1580205799.3986275, "_step": 114}
{"loss": 1.9227383136749268, "_runtime": 48.69084572792053, "_timestamp": 1580205799.488031, "_step": 115}
{"loss": 2.212503671646118, "_runtime": 48.78051829338074, "_timestamp": 1580205799.5777035, "_step": 116}
{"loss": 2.324432134628296, "_runtime": 48.85775184631348, "_timestamp": 1580205799.654937, "_step": 117}
{"loss": 2.2583978176116943, "_runtime": 48.957489013671875, "_timestamp": 1580205799.7546742, "_step": 118}
{"loss": 2.317739486694336, "_runtime": 49.04615783691406, "_timestamp": 1580205799.843343, "_step": 119}
{"loss": 2.2534549236297607, "_runtime": 49.13694667816162, "_timestamp": 1580205799.9341319, "_step": 120}
{"loss": 1.9217153787612915, "_runtime": 49.23221254348755, "_timestamp": 1580205800.0293977, "_step": 121}
{"loss": 2.4495301246643066, "_runtime": 49.321508169174194, "_timestamp": 1580205800.1186934, "_step": 122}
{"loss": 1.899229645729065, "_runtime": 49.41038465499878, "_timestamp": 1580205800.2075698, "_step": 123}
{"loss": 2.6093978881835938, "_runtime": 49.5037043094635, "_timestamp": 1580205800.3008895, "_step": 124}
{"loss": 2.304269790649414, "_runtime": 49.60193467140198, "_timestamp": 1580205800.3991199, "_step": 125}
{"loss": 2.602778434753418, "_runtime": 49.703402519226074, "_timestamp": 1580205800.5005877, "_step": 126}
{"loss": 1.9057421684265137, "_runtime": 49.813002824783325, "_timestamp": 1580205800.610188, "_step": 127}
{"loss": 2.387986183166504, "_runtime": 49.9040150642395, "_timestamp": 1580205800.7012002, "_step": 128}
{"loss": 2.6024506092071533, "_runtime": 50.03433895111084, "_timestamp": 1580205800.8315241, "_step": 129}
{"loss": 2.40643048286438, "_runtime": 50.13505220413208, "_timestamp": 1580205800.9322374, "_step": 130}
{"loss": 2.244203567504883, "_runtime": 50.22298812866211, "_timestamp": 1580205801.0201733, "_step": 131}
{"loss": 1.8853983879089355, "_runtime": 50.38162088394165, "_timestamp": 1580205801.178806, "_step": 132}
{"loss": 2.5131382942199707, "_runtime": 50.5033700466156, "_timestamp": 1580205801.3005552, "_step": 133}
{"loss": 1.874915599822998, "_runtime": 50.60363149642944, "_timestamp": 1580205801.4008167, "_step": 134}
{"loss": 2.1892902851104736, "_runtime": 50.6922824382782, "_timestamp": 1580205801.4894676, "_step": 135}
{"loss": 2.5733370780944824, "_runtime": 50.78080177307129, "_timestamp": 1580205801.577987, "_step": 136}
{"loss": 1.8876750469207764, "_runtime": 50.86977243423462, "_timestamp": 1580205801.6669576, "_step": 137}
{"loss": 1.8407483100891113, "_runtime": 50.95883226394653, "_timestamp": 1580205801.7560174, "_step": 138}
{"loss": 1.8585054874420166, "_runtime": 51.0487105846405, "_timestamp": 1580205801.8458958, "_step": 139}
{"loss": 1.8501843214035034, "_runtime": 51.13748478889465, "_timestamp": 1580205801.93467, "_step": 140}
{"loss": 2.198509693145752, "_runtime": 51.225454330444336, "_timestamp": 1580205802.0226395, "_step": 141}
{"loss": 2.355781078338623, "_runtime": 51.31407284736633, "_timestamp": 1580205802.111258, "_step": 142}
{"loss": 2.5193581581115723, "_runtime": 51.40525412559509, "_timestamp": 1580205802.2024393, "_step": 143}
{"loss": 2.5461370944976807, "_runtime": 51.5007758140564, "_timestamp": 1580205802.297961, "_step": 144}
{"loss": 1.8358378410339355, "_runtime": 51.58966112136841, "_timestamp": 1580205802.3868463, "_step": 145}
{"loss": 2.4241747856140137, "_runtime": 51.692749977111816, "_timestamp": 1580205802.4899352, "_step": 146}
{"loss": 1.7975997924804688, "_runtime": 51.79332947731018, "_timestamp": 1580205802.5905147, "_step": 147}
{"loss": 2.174511432647705, "_runtime": 51.89043974876404, "_timestamp": 1580205802.687625, "_step": 148}
{"loss": 2.3842849731445312, "_runtime": 51.99205565452576, "_timestamp": 1580205802.7892408, "_step": 149}
{"loss": 2.2472963333129883, "_runtime": 52.09248328208923, "_timestamp": 1580205802.8896685, "_step": 150}
{"loss": 2.4473814964294434, "_runtime": 52.19015145301819, "_timestamp": 1580205802.9873366, "_step": 151}
{"loss": 2.635120391845703, "_runtime": 52.29273319244385, "_timestamp": 1580205803.0899184, "_step": 152}
{"loss": 1.742013931274414, "_runtime": 52.393160581588745, "_timestamp": 1580205803.1903458, "_step": 153}
{"loss": 1.7729846239089966, "_runtime": 52.49225306510925, "_timestamp": 1580205803.2894382, "_step": 154}
{"loss": 2.166029691696167, "_runtime": 52.593082427978516, "_timestamp": 1580205803.3902676, "_step": 155}
{"loss": 2.5478336811065674, "_runtime": 52.692238092422485, "_timestamp": 1580205803.4894233, "_step": 156}
{"loss": 1.7615610361099243, "_runtime": 52.792389154434204, "_timestamp": 1580205803.5895743, "_step": 157}
{"loss": 2.392972469329834, "_runtime": 52.88052248954773, "_timestamp": 1580205803.6777077, "_step": 158}
{"loss": 2.271045684814453, "_runtime": 52.97062802314758, "_timestamp": 1580205803.7678132, "_step": 159}
{"loss": 2.3647103309631348, "_runtime": 53.0586302280426, "_timestamp": 1580205803.8558154, "_step": 160}
{"loss": 1.720226764678955, "_runtime": 53.14760231971741, "_timestamp": 1580205803.9447875, "_step": 161}
{"loss": 2.26961612701416, "_runtime": 53.23661541938782, "_timestamp": 1580205804.0338006, "_step": 162}
{"loss": 1.7627546787261963, "_runtime": 53.32784581184387, "_timestamp": 1580205804.125031, "_step": 163}
{"loss": 1.7647589445114136, "_runtime": 53.42675161361694, "_timestamp": 1580205804.2239368, "_step": 164}
{"loss": 2.390791177749634, "_runtime": 53.51643085479736, "_timestamp": 1580205804.313616, "_step": 165}
{"loss": 1.7317836284637451, "_runtime": 53.60171723365784, "_timestamp": 1580205804.3989024, "_step": 166}
{"loss": 1.6397401094436646, "_runtime": 53.6939115524292, "_timestamp": 1580205804.4910967, "_step": 167}
{"loss": 2.5455403327941895, "_runtime": 53.78228569030762, "_timestamp": 1580205804.5794709, "_step": 168}
{"loss": 2.4236419200897217, "_runtime": 53.881064653396606, "_timestamp": 1580205804.6782498, "_step": 169}
{"loss": 2.5944387912750244, "_runtime": 53.967307567596436, "_timestamp": 1580205804.7644928, "_step": 170}
{"loss": 2.559363842010498, "_runtime": 54.05739951133728, "_timestamp": 1580205804.8545847, "_step": 171}
{"loss": 1.6693658828735352, "_runtime": 54.16019940376282, "_timestamp": 1580205804.9573846, "_step": 172}
{"loss": 2.169675350189209, "_runtime": 54.24992370605469, "_timestamp": 1580205805.047109, "_step": 173}
{"loss": 1.6971606016159058, "_runtime": 54.338327169418335, "_timestamp": 1580205805.1355124, "_step": 174}
{"loss": 2.2774658203125, "_runtime": 54.426077365875244, "_timestamp": 1580205805.2232625, "_step": 175}
{"loss": 2.4106593132019043, "_runtime": 54.51580739021301, "_timestamp": 1580205805.3129926, "_step": 176}
{"loss": 1.6764411926269531, "_runtime": 54.60398626327515, "_timestamp": 1580205805.4011714, "_step": 177}
{"loss": 2.17594313621521, "_runtime": 54.69332671165466, "_timestamp": 1580205805.490512, "_step": 178}
{"loss": 2.390117645263672, "_runtime": 54.78293013572693, "_timestamp": 1580205805.5801153, "_step": 179}
{"loss": 2.5243401527404785, "_runtime": 54.871389389038086, "_timestamp": 1580205805.6685746, "_step": 180}
{"loss": 1.5302622318267822, "_runtime": 54.961424112319946, "_timestamp": 1580205805.7586093, "_step": 181}
{"loss": 2.5270931720733643, "_runtime": 55.05931997299194, "_timestamp": 1580205805.8565052, "_step": 182}
{"loss": 2.4183871746063232, "_runtime": 55.1483678817749, "_timestamp": 1580205805.945553, "_step": 183}
{"loss": 1.577049970626831, "_runtime": 55.237874269485474, "_timestamp": 1580205806.0350595, "_step": 184}
{"loss": 2.4081757068634033, "_runtime": 55.32791614532471, "_timestamp": 1580205806.1251013, "_step": 185}
{"loss": 1.4340128898620605, "_runtime": 55.415687799453735, "_timestamp": 1580205806.212873, "_step": 186}
{"loss": 1.6331974267959595, "_runtime": 55.494364738464355, "_timestamp": 1580205806.29155, "_step": 187}
{"loss": 2.4306817054748535, "_runtime": 55.58255076408386, "_timestamp": 1580205806.379736, "_step": 188}
{"loss": 1.5756335258483887, "_runtime": 55.67110347747803, "_timestamp": 1580205806.4682887, "_step": 189}
{"loss": 1.5209343433380127, "_runtime": 55.74913740158081, "_timestamp": 1580205806.5463226, "_step": 190}
{"loss": 2.5470898151397705, "_runtime": 55.83876180648804, "_timestamp": 1580205806.635947, "_step": 191}
{"loss": 2.3940138816833496, "_runtime": 55.92703700065613, "_timestamp": 1580205806.7242222, "_step": 192}
{"loss": 1.3985941410064697, "_runtime": 56.01647472381592, "_timestamp": 1580205806.81366, "_step": 193}
{"loss": 1.5218701362609863, "_runtime": 56.101858377456665, "_timestamp": 1580205806.8990436, "_step": 194}
{"loss": 2.60960054397583, "_runtime": 56.194318532943726, "_timestamp": 1580205806.9915037, "_step": 195}
{"loss": 1.437978744506836, "_runtime": 56.28373456001282, "_timestamp": 1580205807.0809197, "_step": 196}
{"loss": 2.310540199279785, "_runtime": 56.371432065963745, "_timestamp": 1580205807.1686172, "_step": 197}
{"loss": 1.4163321256637573, "_runtime": 56.46022963523865, "_timestamp": 1580205807.2574148, "_step": 198}
{"loss": 2.7049026489257812, "_runtime": 56.551525354385376, "_timestamp": 1580205807.3487105, "_step": 199}
{"gradients/fc4.bias": {"_type": "histogram", "values": [1.0, 0.0, 0.0, 0.0, 0.0, 0.0, 0.0, 0.0, 0.0, 0.0, 0.0, 0.0, 0.0, 0.0, 0.0, 0.0, 0.0, 0.0, 0.0, 0.0, 0.0, 0.0, 0.0, 0.0, 0.0, 0.0, 0.0, 0.0, 0.0, 0.0, 0.0, 0.0, 0.0, 0.0, 0.0, 0.0, 0.0, 0.0, 0.0, 0.0, 0.0, 0.0, 0.0, 0.0, 0.0, 0.0, 0.0, 0.0, 0.0, 0.0, 0.0, 0.0, 0.0, 0.0, 0.0, 4.0, 3.0, 1.0, 0.0, 0.0, 0.0, 0.0, 0.0, 1.0], "bins": [-0.9100663661956787, -0.8923123478889465, -0.8745583295822144, -0.8568042516708374, -0.8390502333641052, -0.821296215057373, -0.8035421967506409, -0.7857881784439087, -0.7680341005325317, -0.7502800822257996, -0.7325260639190674, -0.7147719860076904, -0.697018027305603, -0.6792639493942261, -0.6615099310874939, -0.6437559127807617, -0.6260018348693848, -0.6082478761672974, -0.5904937982559204, -0.5727397799491882, -0.554985761642456, -0.5372316837310791, -0.5194776654243469, -0.5017236471176147, -0.48396962881088257, -0.466215580701828, -0.4484615623950958, -0.43070751428604126, -0.4129534959793091, -0.3951994776725769, -0.37744539976119995, -0.3596913814544678, -0.3419373631477356, -0.3241833448410034, -0.30642932653427124, -0.2886752486228943, -0.2709212303161621, -0.25316721200942993, -0.23541319370269775, -0.2176591157913208, -0.19990509748458862, -0.18215107917785645, -0.16439706087112427, -0.1466430425643921, -0.12888896465301514, -0.11113494634628296, -0.09338092803955078, -0.0756269097328186, -0.057872891426086426, -0.04011881351470947, -0.022364795207977295, -0.004610776901245117, 0.01314324140548706, 0.030897319316864014, 0.04865133762359619, 0.06640535593032837, 0.08415937423706055, 0.1019134521484375, 0.1196674108505249, 0.13742148876190186, 0.1551755666732788, 0.1729295253753662, 0.19068360328674316, 0.20843756198883057, 0.22619163990020752]}, "gradients/fc4.weight": {"_type": "histogram", "values": [1.0, 0.0, 1.0, 0.0, 1.0, 1.0, 0.0, 0.0, 0.0, 0.0, 0.0, 0.0, 0.0, 0.0, 2.0, 1.0, 2.0, 0.0, 1.0, 0.0, 1.0, 0.0, 0.0, 0.0, 0.0, 0.0, 0.0, 0.0, 0.0, 0.0, 0.0, 0.0, 0.0, 3.0, 0.0, 0.0, 1.0, 0.0, 0.0, 0.0, 1.0, 2.0, 0.0, 2.0, 0.0, 0.0, 0.0, 0.0, 3.0, 0.0, 1.0, 306.0, 53.0, 27.0, 36.0, 32.0, 8.0, 3.0, 1.0, 3.0, 3.0, 0.0, 2.0, 2.0], "bins": [-0.5163059830665588, -0.5062336325645447, -0.4961612820625305, -0.48608890175819397, -0.4760165512561798, -0.46594420075416565, -0.4558718502521515, -0.44579949975013733, -0.4357271194458008, -0.4256547689437866, -0.41558241844177246, -0.4055100679397583, -0.39543771743774414, -0.38536536693573, -0.3752930164337158, -0.3652206361293793, -0.3551482856273651, -0.34507593512535095, -0.3350035548210144, -0.32493120431900024, -0.3148588538169861, -0.3047865033149719, -0.29471415281295776, -0.2846418023109436, -0.27456945180892944, -0.2644970715045929, -0.25442472100257874, -0.24435237050056458, -0.23428001999855042, -0.22420766949653625, -0.2141352891921997, -0.20406293869018555, -0.1939905881881714, -0.18391823768615723, -0.17384588718414307, -0.16377350687980652, -0.15370115637779236, -0.1436288058757782, -0.13355645537376404, -0.12348410487174988, -0.11341172456741333, -0.10333937406539917, -0.09326702356338501, -0.08319467306137085, -0.07312232255935669, -0.06304997205734253, -0.05297759175300598, -0.04290524125099182, -0.03283289074897766, -0.0227605402469635, -0.012688159942626953, -0.002615809440612793, 0.007456541061401367, 0.017528891563415527, 0.027601242065429688, 0.03767359256744385, 0.04774594306945801, 0.05781829357147217, 0.06789064407348633, 0.07796305418014526, 0.08803540468215942, 0.09810775518417358, 0.10818010568618774, 0.1182524561882019, 0.12832480669021606]}, "gradients/fc3.bias": {"_type": "histogram", "values": [2.0, 0.0, 0.0, 0.0, 0.0, 0.0, 2.0, 0.0, 1.0, 0.0, 1.0, 0.0, 0.0, 0.0, 1.0, 0.0, 0.0, 0.0, 1.0, 1.0, 0.0, 0.0, 0.0, 1.0, 0.0, 0.0, 27.0, 0.0, 0.0, 0.0, 3.0, 0.0, 0.0, 1.0, 0.0, 2.0, 0.0, 0.0, 0.0, 0.0, 0.0, 1.0, 0.0, 0.0, 0.0, 0.0, 1.0, 0.0, 1.0, 0.0, 0.0, 0.0, 2.0, 0.0, 0.0, 0.0, 0.0, 1.0, 0.0, 0.0, 0.0, 0.0, 0.0, 1.0], "bins": [-0.12142964452505112, -0.11679993569850922, -0.11217022687196732, -0.10754051804542542, -0.10291081666946411, -0.09828110784292221, -0.09365139901638031, -0.089021697640419, -0.08439198136329651, -0.0797622799873352, -0.0751325711607933, -0.0705028623342514, -0.0658731535077095, -0.0612434484064579, -0.0566137433052063, -0.0519840344786644, -0.0473543256521225, -0.0427246168255806, -0.038094907999038696, -0.03346520662307739, -0.028835497796535492, -0.02420578896999359, -0.01957608014345169, -0.01494637131690979, -0.01031666249036789, -0.005686961114406586, -0.001057252287864685, 0.0035724565386772156, 0.00820215791463852, 0.012831874191761017, 0.01746157556772232, 0.022091291844844818, 0.026720993220806122, 0.031350694596767426, 0.03598041087388992, 0.04061011224985123, 0.045239828526973724, 0.04986952990293503, 0.05449923127889633, 0.05912894755601883, 0.06375864893198013, 0.06838836520910263, 0.07301806658506393, 0.07764776796102524, 0.08227748423814774, 0.08690718561410904, 0.09153690189123154, 0.09616660326719284, 0.10079631954431534, 0.10542602092027664, 0.11005572229623795, 0.11468543857336044, 0.11931513994932175, 0.12394485622644424, 0.12857455015182495, 0.13320425152778625, 0.13783395290374756, 0.14246368408203125, 0.14709338545799255, 0.15172308683395386, 0.15635278820991516, 0.16098248958587646, 0.16561222076416016, 0.17024192214012146, 0.17487162351608276]}, "gradients/fc3.weight": {"_type": "histogram", "values": [2.0, 0.0, 2.0, 0.0, 0.0, 0.0, 4.0, 0.0, 5.0, 2.0, 2.0, 3.0, 4.0, 2.0, 5.0, 3.0, 3.0, 2.0, 4.0, 4.0, 4.0, 8.0, 8.0, 11.0, 19.0, 37.0, 725.0, 31.0, 14.0, 16.0, 14.0, 7.0, 8.0, 4.0, 3.0, 4.0, 2.0, 1.0, 2.0, 1.0, 4.0, 3.0, 3.0, 2.0, 2.0, 3.0, 3.0, 1.0, 1.0, 3.0, 1.0, 0.0, 3.0, 0.0, 2.0, 0.0, 0.0, 1.0, 0.0, 0.0, 1.0, 0.0, 0.0, 1.0], "bins": [-0.07478215545415878, -0.07193095982074738, -0.06907976418733597, -0.06622856855392456, -0.06337738037109375, -0.06052618473768234, -0.057674989104270935, -0.05482379347085953, -0.05197260156273842, -0.04912140965461731, -0.0462702140212059, -0.043419018387794495, -0.04056782275438309, -0.03771663084626198, -0.03486543521285057, -0.03201424330472946, -0.029163047671318054, -0.026311852037906647, -0.023460660129785538, -0.02060946449637413, -0.01775827258825302, -0.014907076954841614, -0.012055881321430206, -0.009204685688018799, -0.006353490054607391, -0.003502301871776581, -0.0006511062383651733, 0.002200089395046234, 0.005051285028457642, 0.007902480661869049, 0.01075366884469986, 0.013604864478111267, 0.016456060111522675, 0.019307255744934082, 0.02215845137834549, 0.0250096395611763, 0.027860835194587708, 0.030712030827999115, 0.03356322646141052, 0.03641442209482193, 0.03926561027765274, 0.04211680591106415, 0.044968001544475555, 0.04781919717788696, 0.05067039281129837, 0.05352158099412918, 0.056372784078121185, 0.059223972260951996, 0.062075175344944, 0.06492636352777481, 0.06777755171060562, 0.07062875479459763, 0.07347994297742844, 0.07633114606142044, 0.07918233424425125, 0.08203352242708206, 0.08488472551107407, 0.08773591369390488, 0.09058711677789688, 0.09343830496072769, 0.0962894931435585, 0.0991406962275505, 0.10199188441038132, 0.10484308749437332, 0.10769427567720413]}, "gradients/fc2.bias": {"_type": "histogram", "values": [1.0, 0.0, 1.0, 0.0, 1.0, 0.0, 0.0, 0.0, 0.0, 0.0, 0.0, 0.0, 0.0, 0.0, 0.0, 0.0, 0.0, 0.0, 6.0, 0.0, 1.0, 0.0, 0.0, 0.0, 1.0, 0.0, 1.0, 1.0, 0.0, 1.0, 0.0, 0.0, 0.0, 1.0, 0.0, 0.0, 0.0, 0.0, 0.0, 0.0, 0.0, 1.0, 0.0, 0.0, 0.0, 0.0, 0.0, 0.0, 1.0, 0.0, 1.0, 0.0, 0.0, 1.0, 0.0, 0.0, 0.0, 0.0, 0.0, 0.0, 0.0, 0.0, 0.0, 1.0], "bins": [-0.06789782643318176, -0.06430067121982574, -0.06070351600646973, -0.05710636079311371, -0.05350920557975769, -0.04991205036640167, -0.04631489887833595, -0.042717743664979935, -0.03912058845162392, -0.0355234332382679, -0.03192627802491188, -0.028329122811555862, -0.024731971323490143, -0.021134816110134125, -0.017537660896778107, -0.013940505683422089, -0.01034335047006607, -0.0067461952567100525, -0.0031490400433540344, 0.00044811517000198364, 0.004045270383358002, 0.00764242559671402, 0.011239580810070038, 0.014836736023426056, 0.018433883786201477, 0.022031038999557495, 0.025628194212913513, 0.02922534942626953, 0.03282250463962555, 0.03641965985298157, 0.040016815066337585, 0.043613970279693604, 0.04721112549304962, 0.05080828070640564, 0.05440543591976166, 0.058002591133117676, 0.061599746346473694, 0.06519690155982971, 0.06879405677318573, 0.07239121198654175, 0.07598836719989777, 0.07958552241325378, 0.0831826776266098, 0.08677983283996582, 0.09037698805332184, 0.09397414326667786, 0.09757129848003387, 0.10116845369338989, 0.10476559400558472, 0.10836274921894073, 0.11195990443229675, 0.11555705964565277, 0.11915421485900879, 0.12275137007236481, 0.12634852528572083, 0.12994568049907684, 0.13354283571243286, 0.13713999092578888, 0.1407371461391449, 0.14433430135250092, 0.14793145656585693, 0.15152861177921295, 0.15512576699256897, 0.158722922205925, 0.162320077419281]}, "gradients/fc2.weight": {"_type": "histogram", "values": [1.0, 0.0, 1.0, 0.0, 2.0, 1.0, 1.0, 1.0, 1.0, 1.0, 0.0, 0.0, 0.0, 2.0, 1.0, 1.0, 2.0, 0.0, 110.0, 4.0, 6.0, 3.0, 3.0, 4.0, 5.0, 3.0, 2.0, 3.0, 2.0, 2.0, 1.0, 0.0, 1.0, 2.0, 0.0, 0.0, 1.0, 0.0, 1.0, 1.0, 0.0, 3.0, 0.0, 1.0, 0.0, 1.0, 0.0, 0.0, 2.0, 0.0, 1.0, 0.0, 0.0, 1.0, 1.0, 0.0, 0.0, 0.0, 0.0, 0.0, 0.0, 0.0, 0.0, 1.0], "bins": [-0.03892211988568306, -0.03686006739735603, -0.03479801490902901, -0.03273596242070198, -0.030673909932374954, -0.028611857444047928, -0.026549803093075752, -0.024487750604748726, -0.0224256981164217, -0.020363645628094673, -0.018301593139767647, -0.01623954065144062, -0.014177486300468445, -0.012115433812141418, -0.010053381323814392, -0.007991328835487366, -0.005929276347160339, -0.003867223858833313, -0.0018051713705062866, 0.00025688111782073975, 0.002318933606147766, 0.0043809860944747925, 0.006443038582801819, 0.008505091071128845, 0.01056714728474617, 0.012629199773073196, 0.014691252261400223, 0.01675330474972725, 0.018815357238054276, 0.020877409726381302, 0.022939462214708328, 0.025001514703035355, 0.02706356719136238, 0.029125619679689407, 0.031187672168016434, 0.03324972465634346, 0.035311777144670486, 0.03737382963299751, 0.03943588212132454, 0.041497934609651566, 0.04355998709797859, 0.04562203958630562, 0.047684092074632645, 0.04974614456295967, 0.0518081970512867, 0.053870249539613724, 0.05593230202794075, 0.057994354516267776, 0.0600564144551754, 0.062118466943502426, 0.06418052315711975, 0.06624257564544678, 0.0683046281337738, 0.07036668062210083, 0.07242873311042786, 0.07449078559875488, 0.07655283808708191, 0.07861489057540894, 0.08067694306373596, 0.08273899555206299, 0.08480104804039001, 0.08686310052871704, 0.08892515301704407, 0.0909872055053711, 0.09304925799369812]}, "gradients/fc1.bias": {"_type": "histogram", "values": [1.0, 0.0, 0.0, 0.0, 0.0, 0.0, 0.0, 0.0, 0.0, 0.0, 1.0, 0.0, 0.0, 0.0, 0.0, 0.0, 0.0, 0.0, 0.0, 0.0, 0.0, 0.0, 0.0, 0.0, 6.0, 0.0, 0.0, 0.0, 0.0, 0.0, 0.0, 0.0, 0.0, 0.0, 0.0, 0.0, 0.0, 0.0, 0.0, 0.0, 0.0, 0.0, 0.0, 0.0, 0.0, 0.0, 0.0, 0.0, 0.0, 0.0, 0.0, 0.0, 0.0, 0.0, 0.0, 0.0, 0.0, 0.0, 0.0, 0.0, 0.0, 0.0, 0.0, 1.0], "bins": [-0.06594525277614594, -0.06321538239717484, -0.06048550456762314, -0.05775563418865204, -0.05502575635910034, -0.05229588598012924, -0.049566011875867844, -0.046836137771606445, -0.04410626366734505, -0.04137638956308365, -0.03864651545882225, -0.03591664135456085, -0.03318677097558975, -0.030456896871328354, -0.027727022767066956, -0.024997148662805557, -0.02226727455854416, -0.01953740045428276, -0.016807526350021362, -0.014077652245759964, -0.011347778141498566, -0.008617907762527466, -0.0058880336582660675, -0.003158159554004669, -0.00042828917503356934, 0.0023015886545181274, 0.005031459033489227, 0.007761336863040924, 0.010491207242012024, 0.01322108507156372, 0.01595095545053482, 0.018680833280086517, 0.021410703659057617, 0.024140574038028717, 0.026870451867580414, 0.029600322246551514, 0.03233020007610321, 0.03506007045507431, 0.03778994828462601, 0.04051981866359711, 0.043249696493148804, 0.045979566872119904, 0.048709437251091, 0.0514393150806427, 0.0541691854596138, 0.0568990632891655, 0.0596289336681366, 0.06235881149768829, 0.0650886744260788, 0.0678185522556305, 0.07054843008518219, 0.07327830791473389, 0.07600817084312439, 0.07873804867267609, 0.08146792650222778, 0.08419780433177948, 0.08692766726016998, 0.08965754508972168, 0.09238742291927338, 0.09511728584766388, 0.09784716367721558, 0.10057704150676727, 0.10330691933631897, 0.10603678226470947, 0.10876666009426117]}, "gradients/fc1.weight": {"_type": "histogram", "values": [4.0, 0.0, 0.0, 0.0, 0.0, 0.0, 0.0, 0.0, 0.0, 0.0, 4.0, 0.0, 1.0, 0.0, 0.0, 0.0, 0.0, 1.0, 0.0, 0.0, 0.0, 0.0, 0.0, 0.0, 66.0, 0.0, 0.0, 0.0, 0.0, 0.0, 0.0, 0.0, 0.0, 0.0, 0.0, 0.0, 0.0, 0.0, 0.0, 0.0, 0.0, 0.0, 0.0, 0.0, 1.0, 0.0, 0.0, 0.0, 0.0, 0.0, 0.0, 0.0, 0.0, 0.0, 0.0, 0.0, 0.0, 0.0, 0.0, 0.0, 0.0, 0.0, 0.0, 4.0], "bins": [-0.06594525277614594, -0.06321538239717484, -0.06048550456762314, -0.05775563418865204, -0.05502575635910034, -0.05229588598012924, -0.049566011875867844, -0.046836137771606445, -0.04410626366734505, -0.04137638956308365, -0.03864651545882225, -0.03591664135456085, -0.03318677097558975, -0.030456896871328354, -0.027727022767066956, -0.024997148662805557, -0.02226727455854416, -0.01953740045428276, -0.016807526350021362, -0.014077652245759964, -0.011347778141498566, -0.008617907762527466, -0.0058880336582660675, -0.003158159554004669, -0.00042828917503356934, 0.0023015886545181274, 0.005031459033489227, 0.007761336863040924, 0.010491207242012024, 0.01322108507156372, 0.01595095545053482, 0.018680833280086517, 0.021410703659057617, 0.024140574038028717, 0.026870451867580414, 0.029600322246551514, 0.03233020007610321, 0.03506007045507431, 0.03778994828462601, 0.04051981866359711, 0.043249696493148804, 0.045979566872119904, 0.048709437251091, 0.0514393150806427, 0.0541691854596138, 0.0568990632891655, 0.0596289336681366, 0.06235881149768829, 0.0650886744260788, 0.0678185522556305, 0.07054843008518219, 0.07327830791473389, 0.07600817084312439, 0.07873804867267609, 0.08146792650222778, 0.08419780433177948, 0.08692766726016998, 0.08965754508972168, 0.09238742291927338, 0.09511728584766388, 0.09784716367721558, 0.10057704150676727, 0.10330691933631897, 0.10603678226470947, 0.10876666009426117]}, "loss": 2.4086833000183105, "_runtime": 56.65276384353638, "_timestamp": 1580205807.449949, "_step": 200}
{"loss": 2.4241836071014404, "_runtime": 56.75155806541443, "_timestamp": 1580205807.5487432, "_step": 201}
{"loss": 2.4233145713806152, "_runtime": 56.849671840667725, "_timestamp": 1580205807.646857, "_step": 202}
{"loss": 2.412625312805176, "_runtime": 56.93962836265564, "_timestamp": 1580205807.7368135, "_step": 203}
{"loss": 1.402957797050476, "_runtime": 57.02827167510986, "_timestamp": 1580205807.8254569, "_step": 204}
{"loss": 2.662755012512207, "_runtime": 57.117023944854736, "_timestamp": 1580205807.9142091, "_step": 205}
{"loss": 2.342527389526367, "_runtime": 57.20637583732605, "_timestamp": 1580205808.003561, "_step": 206}
{"loss": 1.4201992750167847, "_runtime": 57.29474091529846, "_timestamp": 1580205808.091926, "_step": 207}
{"loss": 2.7339489459991455, "_runtime": 57.3837833404541, "_timestamp": 1580205808.1809685, "_step": 208}
{"loss": 2.4490182399749756, "_runtime": 57.473705530166626, "_timestamp": 1580205808.2708907, "_step": 209}
{"loss": 1.303612470626831, "_runtime": 57.57250356674194, "_timestamp": 1580205808.3696887, "_step": 210}
{"loss": 1.4047377109527588, "_runtime": 57.662620306015015, "_timestamp": 1580205808.4598055, "_step": 211}
{"loss": 1.3468163013458252, "_runtime": 57.76142859458923, "_timestamp": 1580205808.5586138, "_step": 212}
{"loss": 2.357699394226074, "_runtime": 57.84886288642883, "_timestamp": 1580205808.646048, "_step": 213}
{"loss": 1.3166531324386597, "_runtime": 57.93972826004028, "_timestamp": 1580205808.7369134, "_step": 214}
{"loss": 2.271937847137451, "_runtime": 58.02822470664978, "_timestamp": 1580205808.82541, "_step": 215}
{"loss": 2.4217288494110107, "_runtime": 58.115203619003296, "_timestamp": 1580205808.9123888, "_step": 216}
{"loss": 1.080804705619812, "_runtime": 58.207096576690674, "_timestamp": 1580205809.0042818, "_step": 217}
{"loss": 1.2862886190414429, "_runtime": 58.29530930519104, "_timestamp": 1580205809.0924945, "_step": 218}
{"loss": 2.514925003051758, "_runtime": 58.38099431991577, "_timestamp": 1580205809.1781795, "_step": 219}
{"loss": 1.1992703676223755, "_runtime": 58.4690465927124, "_timestamp": 1580205809.2662318, "_step": 220}
{"loss": 2.4728612899780273, "_runtime": 58.5590660572052, "_timestamp": 1580205809.3562512, "_step": 221}
{"loss": 2.693399429321289, "_runtime": 58.63959074020386, "_timestamp": 1580205809.436776, "_step": 222}
{"loss": 2.720080852508545, "_runtime": 58.729217529296875, "_timestamp": 1580205809.5264027, "_step": 223}
{"loss": 2.4076318740844727, "_runtime": 58.81708550453186, "_timestamp": 1580205809.6142707, "_step": 224}
{"loss": 2.6787877082824707, "_runtime": 58.905768632888794, "_timestamp": 1580205809.7029538, "_step": 225}
{"loss": 1.061583161354065, "_runtime": 58.99510383605957, "_timestamp": 1580205809.792289, "_step": 226}
{"loss": 1.1425914764404297, "_runtime": 59.108012676239014, "_timestamp": 1580205809.9051979, "_step": 227}
{"loss": 1.160563588142395, "_runtime": 59.19835138320923, "_timestamp": 1580205809.9955366, "_step": 228}
{"loss": 2.755253791809082, "_runtime": 59.29577994346619, "_timestamp": 1580205810.0929651, "_step": 229}
{"loss": 1.1763900518417358, "_runtime": 59.38538670539856, "_timestamp": 1580205810.182572, "_step": 230}
{"loss": 2.3893299102783203, "_runtime": 59.473792552948, "_timestamp": 1580205810.2709777, "_step": 231}
{"loss": 1.1599957942962646, "_runtime": 59.5632700920105, "_timestamp": 1580205810.3604553, "_step": 232}
{"loss": 2.8064794540405273, "_runtime": 59.65263342857361, "_timestamp": 1580205810.4498186, "_step": 233}
{"loss": 1.1928261518478394, "_runtime": 59.74152898788452, "_timestamp": 1580205810.5387142, "_step": 234}
{"loss": 2.5148496627807617, "_runtime": 59.829116344451904, "_timestamp": 1580205810.6263015, "_step": 235}
{"loss": 2.4574406147003174, "_runtime": 59.90424680709839, "_timestamp": 1580205810.701432, "_step": 236}
{"loss": 2.593139410018921, "_runtime": 59.983842611312866, "_timestamp": 1580205810.7810278, "_step": 237}
{"loss": 1.059912919998169, "_runtime": 60.073485374450684, "_timestamp": 1580205810.8706706, "_step": 238}
{"loss": 2.420255661010742, "_runtime": 60.16257905960083, "_timestamp": 1580205810.9597642, "_step": 239}
{"loss": 1.1796605587005615, "_runtime": 60.253759145736694, "_timestamp": 1580205811.0509443, "_step": 240}
{"loss": 1.0082893371582031, "_runtime": 60.39628267288208, "_timestamp": 1580205811.1934679, "_step": 241}
{"loss": 1.0187139511108398, "_runtime": 60.496718406677246, "_timestamp": 1580205811.2939036, "_step": 242}
{"loss": 1.069211721420288, "_runtime": 60.582600355148315, "_timestamp": 1580205811.3797855, "_step": 243}
{"loss": 1.1467785835266113, "_runtime": 60.68339800834656, "_timestamp": 1580205811.4805832, "_step": 244}
{"loss": 2.973607063293457, "_runtime": 60.777528047561646, "_timestamp": 1580205811.5747132, "_step": 245}
{"loss": 2.687775135040283, "_runtime": 60.87163281440735, "_timestamp": 1580205811.668818, "_step": 246}
{"loss": 2.5781285762786865, "_runtime": 60.96368169784546, "_timestamp": 1580205811.7608669, "_step": 247}
{"loss": 3.1087493896484375, "_runtime": 61.04921793937683, "_timestamp": 1580205811.8464031, "_step": 248}
{"loss": 2.542518138885498, "_runtime": 61.14430475234985, "_timestamp": 1580205811.94149, "_step": 249}
{"loss": 0.9466975927352905, "_runtime": 61.239543199539185, "_timestamp": 1580205812.0367284, "_step": 250}
{"loss": 2.8404598236083984, "_runtime": 61.33064079284668, "_timestamp": 1580205812.127826, "_step": 251}
{"loss": 0.9519822597503662, "_runtime": 61.41696214675903, "_timestamp": 1580205812.2141473, "_step": 252}
{"loss": 0.9937043190002441, "_runtime": 61.508381605148315, "_timestamp": 1580205812.3055668, "_step": 253}
{"loss": 2.565316677093506, "_runtime": 61.597426414489746, "_timestamp": 1580205812.3946116, "_step": 254}
{"loss": 2.9941391944885254, "_runtime": 61.68453645706177, "_timestamp": 1580205812.4817216, "_step": 255}
{"loss": 0.8617366552352905, "_runtime": 61.77193474769592, "_timestamp": 1580205812.56912, "_step": 256}
{"loss": 2.6004648208618164, "_runtime": 61.86173105239868, "_timestamp": 1580205812.6589162, "_step": 257}
{"loss": 2.5092296600341797, "_runtime": 61.94987487792969, "_timestamp": 1580205812.74706, "_step": 258}
{"loss": 0.8172045350074768, "_runtime": 62.04160404205322, "_timestamp": 1580205812.8387892, "_step": 259}
{"loss": 3.0484671592712402, "_runtime": 62.12871170043945, "_timestamp": 1580205812.925897, "_step": 260}
{"loss": 2.5292277336120605, "_runtime": 62.220924854278564, "_timestamp": 1580205813.01811, "_step": 261}
{"loss": 2.8195385932922363, "_runtime": 62.317816734313965, "_timestamp": 1580205813.115002, "_step": 262}
{"loss": 2.581693410873413, "_runtime": 62.410343170166016, "_timestamp": 1580205813.2075284, "_step": 263}
{"loss": 0.6912065744400024, "_runtime": 62.50896430015564, "_timestamp": 1580205813.3061495, "_step": 264}
{"loss": 0.9955617189407349, "_runtime": 62.59932994842529, "_timestamp": 1580205813.3965151, "_step": 265}
{"loss": 0.957758367061615, "_runtime": 62.685649156570435, "_timestamp": 1580205813.4828343, "_step": 266}
{"loss": 2.565443754196167, "_runtime": 62.773186922073364, "_timestamp": 1580205813.570372, "_step": 267}
{"loss": 2.454012393951416, "_runtime": 62.86281657218933, "_timestamp": 1580205813.6600018, "_step": 268}
{"loss": 0.9462100267410278, "_runtime": 62.95256805419922, "_timestamp": 1580205813.7497532, "_step": 269}
{"loss": 3.0747904777526855, "_runtime": 63.03990387916565, "_timestamp": 1580205813.837089, "_step": 270}
{"loss": 2.6380248069763184, "_runtime": 63.131776571273804, "_timestamp": 1580205813.9289618, "_step": 271}
{"loss": 2.7835845947265625, "_runtime": 63.21912741661072, "_timestamp": 1580205814.0163126, "_step": 272}
{"loss": 2.9584176540374756, "_runtime": 63.30893063545227, "_timestamp": 1580205814.1061158, "_step": 273}
{"loss": 2.8442564010620117, "_runtime": 63.399791955947876, "_timestamp": 1580205814.1969771, "_step": 274}
{"loss": 2.5612053871154785, "_runtime": 63.499505043029785, "_timestamp": 1580205814.2966902, "_step": 275}
{"loss": 2.363574981689453, "_runtime": 63.59585213661194, "_timestamp": 1580205814.3930373, "_step": 276}
{"loss": 2.542109966278076, "_runtime": 63.688122510910034, "_timestamp": 1580205814.4853077, "_step": 277}
{"loss": 2.3070240020751953, "_runtime": 63.797760009765625, "_timestamp": 1580205814.5949452, "_step": 278}
{"loss": 2.5539071559906006, "_runtime": 63.88822555541992, "_timestamp": 1580205814.6854107, "_step": 279}
{"loss": 2.5859766006469727, "_runtime": 63.987067461013794, "_timestamp": 1580205814.7842526, "_step": 280}
{"loss": 1.143358588218689, "_runtime": 64.07523369789124, "_timestamp": 1580205814.8724189, "_step": 281}
{"loss": 2.6614017486572266, "_runtime": 64.16456604003906, "_timestamp": 1580205814.9617512, "_step": 282}
{"loss": 1.139158844947815, "_runtime": 64.25201153755188, "_timestamp": 1580205815.0491967, "_step": 283}
{"loss": 0.9727253317832947, "_runtime": 64.35337805747986, "_timestamp": 1580205815.1505632, "_step": 284}
{"loss": 1.071948766708374, "_runtime": 64.44359612464905, "_timestamp": 1580205815.2407813, "_step": 285}
{"loss": 1.0183979272842407, "_runtime": 64.54217600822449, "_timestamp": 1580205815.3393612, "_step": 286}
{"loss": 2.982944965362549, "_runtime": 64.63206124305725, "_timestamp": 1580205815.4292464, "_step": 287}
{"loss": 2.575352191925049, "_runtime": 64.72006273269653, "_timestamp": 1580205815.517248, "_step": 288}
{"loss": 2.7568182945251465, "_runtime": 64.88507318496704, "_timestamp": 1580205815.6822584, "_step": 289}
{"loss": 2.3983206748962402, "_runtime": 64.98374056816101, "_timestamp": 1580205815.7809258, "_step": 290}
{"loss": 2.684797763824463, "_runtime": 65.11220073699951, "_timestamp": 1580205815.909386, "_step": 291}
